W1: 5.081258654030382793e-01 3.467016221886875527e-01 1.756621341398045266e-01 8.055258275107052279e-02 4.882811924899161937e-01 -6.824503784546899210e-01 5.683385344624112268e-01 2.643305743203520075e-01 1.656056040900558968e-01 4.286927541647109208e-01 4.313199552430249661e-01 -9.752087869733639947e-01 -1.009823194004817737e-01 3.700526493145009366e-01 4.139261635408538198e-01 3.422363054557426287e-01 5.641947223351225782e-01 -3.575303087287224901e-01 4.989132407449118900e-01 1.553571936081333815e-01 -9.823389975756745551e-01 7.435806872460445360e-01 3.731726102938757172e-01 3.722313780829973329e-01 1.825288002985487046e-01 -7.480966625602326892e-02 2.100785205754377993e-01 4.910032186036665802e-01 -2.071855263364441868e-01 9.946006455066684626e-02 1.950492868341495156e-01 5.325579873615087813e-03 -6.474627350935215075e-02 2.265457103315092202e-01 -1.483691788630652451e-02 7.274248494785777452e-02 -4.400065242769465867e-01 2.720224872932428539e-01 6.464697969904884545e-01 4.602200727427498972e-01 7.985013544083657822e-02 -5.319560677768084833e-01 2.439731850724112805e-01 6.835850126779536851e-01 5.212310268296578286e-01 -5.625452824039363364e-02 2.895222061219356879e-01 5.764834028194019133e-01 -9.011912082913095534e-02 2.086876561060905383e-02 4.258176561742933741e-02 -4.296636414995701203e-02 1.896946040193153438e-01 3.485394243167418971e-01 3.469393649269332802e-01 6.070724583765241267e-02 1.855043856327198148e-01 3.236813727035867116e-01 1.698146806562305933e-01 5.807832669035751794e-01 -1.090381187729031962e-02 4.301212565558636958e-01 4.548600966890559150e-01 1.711176886779750272e-01
3.950717014325911269e-01 -9.612247521125825978e-02 2.203487763193812121e-01 3.710856014657784585e-01 9.773826850037068414e-01 -4.549724857783349896e-01 -5.273856636128969599e-01 -1.974634741378327590e-02 2.737080061683245386e-02 2.322588581346458625e-01 6.393446636058389698e-01 -9.502177563930299664e-01 1.131520822407287297e-01 2.385690505952008100e-01 3.021925654896675528e-01 1.150437625688450621e-01 8.287365401581339719e-02 -9.834158584090310629e-02 -1.837715523372197290e-01 5.321271294783775918e-01 4.610950444909818202e-01 1.743805184497075333e-01 2.090403594729544068e-01 6.915496720943294096e-02 8.390018898217795063e-02 5.639337256795817765e-01 3.293828139501182584e-01 2.176760923496732225e-01 -1.482209597905037313e-01 -7.240147670374754707e-01 8.577115655256915827e-02 1.380935387482424004e-01 3.960227974554256236e-01 4.674946093143029224e-01 -6.535161987138649042e-02 4.530280288730368921e-01 -5.491881094894840443e-01 5.583894902965561569e-01 5.611448968984240719e-03 1.944452523483950757e-01 -2.886359662389521019e-01 7.255881314209887412e-02 -2.325621138181417080e-01 -1.308665962615681300e-01 7.940939310600757250e-02 -3.587859212786937979e-01 -5.986356489269899495e-01 -1.860605892163474939e-01 7.716797742482702782e-01 -8.396264767838416965e-02 3.667897430967853589e-02 -3.411960713704672576e-01 -1.964477376662820129e-01 -4.015132126804152879e-01 2.318052239199888398e-01 -2.184221992524379152e-01 -1.235425349098964592e-01 1.477889377552793482e-01 6.345402546433778213e-01 7.626592449424218767e-01 -5.581234179153282682e-01 4.233999316983361183e-02 6.936591303083520232e-01 2.429809355982833485e-01
-3.624365449351739654e-01 -1.524156090114985318e-01 -2.630874848940885080e-01 -3.750664793808611841e-01 -6.831898379582075354e-01 6.029807203544089722e-01 -1.851522497566169545e-01 9.974773655924345367e-03 1.111070470705620844e-01 -7.513404751142455096e-01 3.449093562517522304e-01 2.985107838451960816e-01 2.076389152219016987e-01 -3.082950630888413035e-01 5.138766697555794405e-01 2.792994131841122218e-01 1.455149163177001936e-01 -3.217308188341894692e-01 4.881115657397980256e-01 2.390892940465389194e-01 6.469809854672949889e-01 -2.231759093322571996e-01 -4.304276846985945482e-01 -7.172291495775049430e-01 2.581560183325756590e-03 1.350082288561552213e+00 -3.589421121078552046e-01 -4.588054406075960379e-01 5.721103896561491320e-01 -1.416641145142003566e-01 7.628633208874537053e-02 1.460346750996612541e-01 -2.274240293273551705e-01 -9.452421367229456584e-01 -3.303482110153022622e-01 -1.148647071439384965e-01 -2.441637212034102333e-01 -4.094982022132761523e-01 -4.229072323295771096e-02 -1.073767793798501013e-01 9.975313346599415931e-01 -7.405977927919413784e-01 -5.784151458007938951e-01 3.310207621719117310e-01 5.754482382199304080e-01 -2.656278821036882620e-01 1.453200702478504303e-01 -8.885248522581437047e-01 7.818982085608662258e-01 -3.275088744636829863e-01 1.011460362035186550e-01 -1.522849327323076984e-01 -7.616246071903127746e-01 -1.316093898692238806e-01 7.877103565258075646e-01 6.940177469094476193e-01 1.353329732619942827e-01 -3.063005581197860705e-01 -3.973588925894118717e-01 -4.513458387064995386e-02 2.993890688794677013e-01 -1.172819293375004096e-01 -1.164279610771816326e-01 4.932119783286176840e-01
5.046660995134801819e-01 3.845421332777508583e-02 -3.946382752927456161e-02 -7.776822072113622752e-01 -9.547456253716979369e-02 2.551350342960748141e-01 2.429195312312421862e-01 1.803599516406317882e-01 2.015942028670284283e-02 5.260799464193267605e-01 -3.083467259420659690e-01 4.299970112051244020e-01 -7.511306743142790454e-01 -9.808954512166466744e-01 -7.403460446353133939e-01 -6.918795266216501982e-01 -6.732418797989978554e-01 7.399510551423231774e-01 3.559864985451726554e-03 -8.140052068164057575e-01 -9.542224020158998621e-02 -5.167132051138656479e-01 -6.177905799429486144e-01 1.809820574083171318e-01 3.062324360967675907e-01 -2.889730211811361235e-02 5.524578070203569613e-01 -1.520805921570829965e-02 2.717612740106266078e-01 -1.680606538623578491e-02 -9.121620418791220875e-02 -7.213405088226908235e-02 -5.024265906487603850e-01 9.039742578430762787e-01 -1.712158935625450185e-01 -5.031133531108721718e-02 -4.910509129417856555e-01 -1.620595866445959932e-01 2.189056383783489490e-01 -1.297905667668926011e-01 5.032114257277823244e-01 9.715691673971435516e-02 8.010989048672269297e-02 -5.105447620067357084e-01 -1.204330190517786531e-01 -7.066733388249097914e-01 -8.143639825433400814e-01 4.216820737043517342e-01 -1.395858738620964767e-01 -6.762368126426887560e-02 1.236188223418926806e-02 -8.402953200022342806e-01 -5.656163559523402773e-01 -3.394249969123495220e-03 4.149683443265760885e-01 -2.866401801397182592e-01 9.074869522781153774e-01 -4.397047629336423569e-01 -6.326453394513625872e-01 -1.437145074737171124e-01 -1.159283895732819536e+00 9.192572447686458981e-01 3.785103510148968287e-01 -9.254117554881139407e-01
7.078664348594957412e-01 1.014632584505087975e-01 1.009577707661451634e-01 -3.536838358365320678e-01 -2.932718857997879125e-02 -5.482909481642921357e-01 1.853680595659715769e-01 -2.091283806722604999e-01 -3.352516589661100332e-02 1.329379771367911189e-01 -1.125194062263927368e-02 2.333113566713548165e-02 -7.204870949207545228e-02 -3.088653763405750929e-01 3.261484902682446618e-01 3.541582046693133590e-01 1.195991133705432696e-01 4.598476683346703342e-01 -9.384469459668867697e-02 2.208722445552652180e-01 -8.162400748365192249e-02 1.273180825109811176e-01 -8.654387451847200818e-02 2.649074492788098811e-01 -1.593763992201393254e-01 7.571535004247058331e-02 5.354502065116619608e-02 2.125409271593048377e-01 2.709074995665576302e-01 6.714358489180294494e-03 -2.017533553308957159e-02 -1.177845769550025512e-01 -7.719473188438741307e-01 -8.981205248600417079e-03 7.899396121557729356e-02 1.943574193642268189e-01 2.130076179973883488e-01 -1.539842068991175567e-02 2.307218037754680817e-01 1.068491345510851342e-01 1.858711913446523811e-01 3.087479614105412967e-02 -6.350144334898884246e-02 5.652480522484495395e-01 2.113766036063549347e-01 1.190679013734733671e-01 4.908318042081796090e-02 3.250008788552634365e-02 -1.569360727612952866e-01 -2.531549651215733374e-02 -1.796851565448339891e-02 -5.157728149165890889e-03 9.668657629105609219e-02 -2.417188101193885330e-01 2.813733412437970441e-02 -4.827691081749113829e-03 1.518504106646259011e-01 -5.960111920233449739e-02 7.965690339080870874e-01 3.282606395728178139e-01 1.562594985356858257e-01 -3.128618287485807059e-01 -4.353370603824517349e-01 -9.361603743813282086e-02
-2.079666469128150508e-01 -2.918266948228864788e-01 8.285134335962592023e-02 -6.026809528627553869e-02 -1.489496015343639568e-01 3.027075164010736286e-01 -5.740899517891633053e-02 5.053893938771790717e-01 -2.028047798935405377e-01 1.004570955862061077e-01 -1.633551526440379376e-01 4.155968766667693659e-01 -6.000447215569346682e-01 1.568791524202414189e-01 3.469876739776069918e-01 -9.112802230538885606e-02 -7.502607580764338868e-01 -7.145724810952439610e-01 -6.854736250971162903e-01 -6.441749842318762465e-01 -1.847859369466577362e-01 2.521636806528723684e-01 -4.052169433941634202e-01 -1.535516253084559246e-01 -3.207527870661925351e-01 8.245475394417130233e-02 -2.418057917694518832e-02 5.275392204963096771e-02 3.111646298780516573e-01 -4.765478825141070685e-01 3.556764188522759107e-01 4.296309359197162392e-01 -3.717754146557262773e-01 2.580707514658717172e-01 -2.783517313234902812e-01 -1.131215012294773253e-01 2.897643398234981196e-02 -3.193848846487973847e-01 -3.657552652460833165e-01 -3.315170794051530700e-01 -2.398632432795110014e-01 -1.151439419293148747e-02 -3.701555766983231632e-01 9.228520080813458482e-02 -1.630503367557789018e-01 6.876562129734722917e-02 1.693980669232510172e-01 -8.258782181942959655e-01 -1.615173826503551735e-01 -4.578277126058052371e-01 -9.183962362149349079e-02 -3.334259853821207598e-01 3.412064175191009685e-01 -3.987562393560304952e-01 6.318098487284247167e-01 6.160818924587651013e-01 7.910714584798527182e-01 -5.800332128254813702e-01 -5.440626443290971226e-01 3.235028142821566588e-02 1.460105422276166687e-01 3.277774933327751716e-01 -5.555958116297792238e-01 1.600118472281625570e-01
2.706818066678011170e-01 -2.738401188914176831e-01 -1.269198544811423468e-01 -2.519246007939925369e-01 -2.570286161765270028e-01 -3.114391940253627422e-01 -4.681663018540501153e-01 9.569237877415515126e-01 -2.851412997452679732e-01 3.892827326969580670e-01 -4.369586225734277685e-01 2.209517500620077346e-01 -5.273571136118263558e-01 2.870702209106534286e-01 3.059140258745529084e-01 4.210173439252657968e-01 -5.359746286050472985e-01 5.358619819431093001e-01 1.341757398952485303e-01 5.994189550265557331e-01 -2.013712242031217847e-01 -2.859159598984667428e-01 -6.072354089833559287e-01 -1.515211632048497625e-01 3.718277947459830424e-02 2.546564518705448643e-01 1.056983766929464330e-01 3.147166166135136889e-01 7.809491040019578278e-01 5.353181523654728519e-02 -8.481606111126300807e-01 -7.301862647520994676e-01 -2.938641531792910433e-01 1.790609670115263508e-01 2.428486296240343068e-01 -8.217337442020207217e-01 -5.938486735189296012e-02 5.183393487995436866e-01 -1.742417131040646661e-01 -2.773122680006721574e-01 8.447533202351487081e-01 2.536509066121022879e-02 -9.118338739037229468e-02 2.509871481830396878e-01 -3.179861150493936695e-01 -3.073948844463366692e-01 4.119888626176106405e-01 4.031927742773891432e-01 2.646189786437039837e-01 4.651685909112141665e-02 1.831547972879788919e-02 1.828049659661399873e-01 2.971288405766600027e-01 8.546486547339660067e-01 2.209416703955058847e-01 4.982857966975333674e-01 3.725660583752573585e-01 -3.632259793543805571e-01 -2.565260518001343804e-01 4.961517139306437230e-01 -1.535452056438304548e-02 3.377027523308435142e-01 -1.982819995752390929e-01 1.738737286227844403e-01
-2.799971045151697924e-01 4.916893127449964429e-01 -4.487885284296967703e-02 4.289190528638264777e-01 3.345463430203520216e-01 -1.573803928558848986e-01 5.237693992630858553e-01 -1.536722575488857212e-01 -3.397254302644628909e-01 4.363362527277391267e-01 -1.479150086958237464e-01 -2.372508472523324474e-01 -3.049872297768337764e-02 -3.319724774535055545e-01 2.719909131888274545e-01 3.095358876741127752e-01 -1.648362628623875059e-01 -3.618540439611040993e-01 7.987972481492598698e-02 4.925510481102307603e-01 2.860623575847278666e-01 -1.870748644550216389e-01 2.546834657993912177e-01 -2.472162549327589290e-02 -2.790461616202357178e-02 6.397963072643895188e-01 -4.039166217053642705e-02 5.434095235310473088e-02 -7.742558395014692563e-01 -5.076806928918677908e-01 2.401290453436378744e-02 -8.452976979653466227e-02 3.061434222126682148e-01 -2.600214935762483193e-01 -3.592283648302534438e-01 3.099717610256573219e-01 3.147299493181681118e-01 4.243881517958147942e-01 6.405812984374813501e-01 7.362948477563717731e-01 1.844689973755840040e-01 -4.153370252439320676e-01 1.035307887182929099e-01 3.435983630324172533e-01 -5.826606068472309219e-02 1.551867833668053309e-01 -3.155993012409564202e-01 -3.689881532688160104e-01 2.963348196038054216e-01 -6.334030983548586402e-01 -2.414831588194717715e-01 4.239095042009125014e-02 -6.175476284679122241e-01 -1.811273308338317012e-01 -4.251783178133533569e-01 -4.119587339515859981e-01 -2.451957092840844343e-01 1.249956914543263881e-01 -1.438801113641025309e-01 2.184793969191645424e-01 -9.535713151241947960e-02 4.232455245373033248e-02 5.175910486667854027e-01 -1.833191299581708456e-01
1.342705497535795836e-02 -4.853184979762192874e-01 7.180900557100297621e-02 -2.620281978932792466e-01 -5.695632903153707849e-01 1.643825659124059646e-01 2.696714095918557597e-01 2.741706869723551376e-01 4.971729194273177832e-01 -4.930027242175891722e-01 -2.079709324378089252e-01 6.817722027245994854e-01 1.423097682362048366e-01 9.844630881950977574e-02 4.377162185684544404e-01 -1.843822692620647741e-01 2.075470464403661175e-01 3.749986681121540433e-01 4.681150568947529678e-01 -1.022692998704510109e-02 -5.852156069807073341e-02 7.522781407720585678e-03 -2.973067358346567768e-01 -2.565340725495812713e-01 4.881409395134771873e-02 -2.585515573718573656e-01 -5.680817097733794618e-01 2.119429857458516309e-01 2.822557829642380681e-03 -2.722221253368485860e-01 -6.952770189325069294e-01 2.584837542243529351e-01 -1.094372662437381738e+00 -7.712123917333797429e-01 -3.466684549255709125e-01 5.155843648785884969e-01 3.066104509144447765e-01 -6.048308356583060874e-01 -3.499180346868814850e-01 -5.241224751500380696e-01 2.753734811876522581e-01 -6.333647455467358300e-01 8.648915653127506320e-02 5.055726786453031973e-01 -1.677545896070271880e-01 3.119096830328680903e-01 -4.697674790451110693e-01 3.207088906848548637e-01 -6.724013163156675708e-03 -4.760202651000741692e-01 3.284924681728699225e-01 -6.645284919319846551e-02 -6.608472744111213437e-01 1.141517788172022208e+00 2.859238407477365240e-01 2.489586844884918437e-01 -3.602850661369966234e-01 -2.332995664962105031e-01 -1.465582629002969983e-01 6.278634480668048023e-02 7.359679041130345878e-02 9.070428453772190203e-01 8.264057248346980133e-02 4.043773343328573855e-01
2.918026043760383881e-01 2.615289011529264851e-01 -1.326287843862256066e-01 5.405276551908629878e-01 4.826840544834992003e-02 -1.343968842713118284e-01 -4.353260402527363016e-01 3.370385160449091977e-01 8.469666210701932707e-01 -4.286336869200917388e-01 9.281221154374997839e-01 -1.824020703119412501e-01 4.124556208709300592e-02 -6.141304330888959218e-01 -1.765270549705269809e-01 -2.580798766763346963e-01 7.755865118285830417e-02 9.499815622158864770e-01 4.503426553750199957e-01 5.232388996680994442e-01 -1.640501796118823408e-01 9.355747123150200961e-01 -7.841589489835490423e-02 1.630339582050060743e-01 -3.564254022752884055e-01 3.738581191368642309e-01 -7.536952091633993822e-01 -2.672984268320346413e-01 -7.577911064493616511e-01 -2.210068159673521104e-01 2.430995103693746051e-01 1.110099861736269400e+00 -7.390371211505029070e-01 3.604481466955549718e-01 5.826323418103747098e-01 7.598006877590883779e-01 1.073018696554956186e+00 -1.389741665463191667e-01 -2.990848807709558521e-01 -4.304228454344790067e-01 1.052649005776481017e+00 -5.436960120518750106e-01 4.073213755150698612e-01 -3.994637776752411051e-01 -1.773951389099457654e-01 -3.504858507840294402e-01 7.172693111143703115e-01 -2.289182817091071909e-02 8.089799635273846601e-01 -2.434482171747864576e-01 1.140691275738209276e+00 3.535691970939957018e-01 4.005919736443875889e-01 -8.436229373770192108e-01 -4.801776576736635493e-01 1.233551483895082956e+00 1.507071428205376262e-01 9.132188771890022150e-02 -2.217999397348719426e-01 2.027786630502354526e-01 -2.946454735028416483e-01 5.124762103022473259e-01 -3.768318508185873883e-01 4.546588740974927823e-01
-4.148466263970452816e-01 1.900711007761098026e+00 -1.993335940242413562e+00 1.170872167690360399e+00 -8.692141078800982301e-01 1.349380518575768795e+00 -6.550302389747307830e-01 -1.667632545038972847e+00 2.845006052403978997e-02 5.693703345568542629e-01 1.298700943939303798e-01 1.364696526130764864e+00 2.337883173254720892e-01 1.773087967277607646e+00 -8.482457101536362842e-02 -1.318031652003554210e+00 9.522649315705079553e-01 -4.380494005997183637e-01 -7.627044383976595565e-01 -7.643488033610827959e-01 -4.658422477732268585e-01 -1.314451077342341512e-01 -4.681457136506348427e-01 -4.561110603048662004e-01 -3.972316251138103410e-02 -2.614075849939669904e-01 -3.782978770634104482e-01 1.720789822340136777e+00 -1.186059973581359284e+00 1.298596358259368651e-02 -2.034260566438502504e+00 -1.024035795234326640e+00 7.918139910593492425e-01 1.400519080329939436e+00 -3.432163257944024215e-01 -2.394555884385081782e-02 1.381673034943211364e+00 -3.627432933219690292e-01 9.424567624211209471e-02 -1.024651008386649742e-01 -2.001354264744804878e-01 -2.067724863685203029e+00 -1.948454973890711317e+00 8.565019529114559216e-01 2.323249824250070539e+00 -9.590832183702260316e-01 -5.462748093534778443e-02 -1.593211549207499689e-01 3.079772801283159889e-01 -4.821490755064867240e-01 -2.442824619058625302e-01 -5.159488285087602266e-01 -1.169606948574472005e+00 -1.758428058929571436e-01 -3.750242941175505607e-01 -6.719320113961699432e-03 -3.304497592120007043e-01 -2.946665594703150592e-01 -7.822520737852914907e-01 -5.355917615324800041e-01 -3.658972438893641210e-01 1.331945284868093216e-01 -9.307819586843032456e-01 4.016618336546821100e-01
-7.336187065250548978e-02 1.383419136629194801e-01 -1.761406576027474691e-01 4.936220075215604908e-01 -2.434157332544380908e-02 -5.944810440779384891e-02 4.774384885281528212e-02 -4.499590238224073779e-01 4.014554675757519425e-02 -2.228431997363378853e-02 -9.578045982589823704e-02 1.010484345420897129e-01 8.442578544872943180e-02 1.146742719810266015e-01 1.712150407807063457e-01 -6.853937586802168191e-02 -7.370652178843064561e-01 1.423441957118810330e-01 -5.992427701061617956e-02 -4.926775584056847235e-02 -6.511181227323228904e-02 2.867697272407601639e-02 1.191707692548604801e-03 5.824839707389704163e-02 -7.691746126345261336e-02 -1.439711278467954020e-02 -8.084201000026828426e-03 1.656454854358989925e-01 3.666198815289381518e-01 6.019751046911393788e-02 -7.733431992093775520e-02 -2.384620716164257553e-02 2.816190217533188350e-02 -7.508168774732457140e-02 -8.448993762446611600e-01 -3.535775662500180161e-01 8.929354770002474739e-02 2.159136011562303725e-01 -4.881486397255295206e-01 -1.218118970887829416e-01 -8.477753948256881722e-02 -1.414484898364837540e-01 1.092005654202751891e-01 1.755869069342841648e-01 7.648966495448099312e-02 -3.903288867868222323e-02 1.569883263628508163e-01 -3.416698221995975726e-02 5.779387888260244244e-02 -2.956110414225377597e-02 -1.205177712047646871e-02 -1.809323154534077105e-01 -1.076121399726609335e-01 -1.807291236847834992e-01 -1.873573455428858073e-02 3.037944562269928941e-02 4.951096638219956159e-01 -6.898609721786538307e-01 -2.464101060675056298e-01 3.280168045596261184e-01 9.636978225121126118e-02 -3.810472506325175424e-01 -2.058811440193693623e-02 9.757996587942444067e-02
-8.194499497131171317e-01 -9.007866632193220480e-02 -5.330559044355586557e-02 5.228841043281048373e-01 2.892577083078603506e-01 4.143671690787213979e-01 4.111480425871260058e-01 -4.290500129537043184e-01 -2.617112941806918891e-01 -1.322184287967179683e-01 3.023417898582387298e-01 -7.087238492518037614e-01 -2.306257233932997031e-02 -4.889664842921706001e-01 -1.552566438606963195e-01 5.608705815005242401e-02 4.854169995661661852e-01 -1.071912473071969796e+00 -1.347473059268447237e-01 -2.259312592605489459e-02 -3.062404769165010809e-01 5.155354550167925431e-01 -8.298046657074011900e-01 3.032683920074417602e-02 1.930412246762474027e-01 1.277596469444861223e-02 2.403121058091150231e-01 -3.817016229675033734e-01 5.060962115445247766e-01 -5.319028011639368586e-02 8.275871633782860143e-03 -4.876891452173389707e-01 4.383342834003086108e-01 5.151464868052457735e-01 -7.533512875742568449e-01 4.726955451956103560e-01 4.514770175530932045e-02 3.565626924850487378e-02 -2.425683096389980864e-01 4.329585237671196851e-01 -4.703826999447343615e-01 6.089991233199713028e-01 -3.518706489813117066e-02 -1.631401922377463676e-01 5.819928908080806290e-02 -2.611069652079855419e-01 1.138367687131840666e+00 4.340649872312857260e-01 3.918388574719698370e-01 -3.013226949122107534e-01 -2.021089406989787507e-01 5.517568971829819868e-02 -1.434180248513981237e-01 2.432893530654298975e-01 -9.744726910753843951e-02 -4.576756989467002934e-01 -3.838258520079664837e-01 9.417678551876834669e-02 2.781603092660429599e-01 5.326847416985999034e-02 -3.219783651884376430e-01 -1.520815347296642084e-01 -5.114727333368361828e-01 3.653702857164019546e-01
-2.431554129055088498e-01 -2.935738843501291273e-02 3.649529099600021947e-02 1.890286850723300327e-01 -1.416235719927499137e-01 -1.385249981740696024e-01 5.462363562009905915e-02 1.969962772176651888e-01 7.101512064150662384e-01 4.555731927412168814e-01 3.194486770307815027e-01 -3.750742540535081937e-01 2.899088345490913321e-01 7.997004738036838090e-01 -2.512761620348305525e-01 -3.572297107807407279e-01 -9.543600696093214319e-02 2.770866772076231999e-01 3.173904113866890531e-01 -1.016635562216379185e-01 -3.516556471676137718e-01 3.546522953273301138e-01 1.912645296109424242e-01 1.378692968108850447e+00 8.015506559581192514e-01 1.602880808455730416e-02 -5.897480779840939130e-02 2.811562388079876917e-03 -2.341673665782401381e-01 3.593804742808828778e-02 1.661196121381376400e-01 -5.582192778871879479e-01 -1.555429806581422603e-01 -1.122973930953365951e-01 2.067211609162902808e-01 -2.540852375739225955e-01 1.111624858984164854e-01 5.774736145810137333e-03 3.055812733446973684e-01 -6.536530545544448900e-01 9.364337087185778952e-01 1.498373319949947713e-01 3.869942709604206471e-02 4.255985699324970062e-01 -2.883673221657417560e-02 -3.424842991001533221e-01 2.576974429802161848e-01 2.627792205918957347e-01 2.751368756136413074e-01 2.840913618251750816e-01 6.340084638768763749e-03 2.900342112914898463e-02 -2.032682664713895415e-01 7.603729375543379077e-02 -2.538967735422065566e-02 7.849257741666113564e-01 2.371721603862646244e-01 -4.359834331940671825e-01 1.897795165713599130e-02 -1.772243213564301048e-02 -1.042099675003806070e+00 1.927780211106067398e-01 -1.994534452896807863e-01 1.533471595861627956e-01
-3.913822404920103137e-01 -3.434385943014272580e-01 1.084384728131094350e-01 -5.363808258368338855e-01 -4.093080126916336381e-01 -2.285605050750778577e-01 9.035235108876839283e-02 8.234676408724774799e-01 2.417016640284594745e-02 1.939526982418490197e-01 4.794273228662069286e-01 -6.582347056994454215e-01 7.897240586152243225e-01 -3.395674913801325495e-02 6.435754400534875463e-01 2.503379454744619204e-01 -3.254336827643369290e-01 5.213578276328150185e-01 3.832628738621953191e-01 1.453394620554147587e-01 7.971195438250625043e-02 -1.394280718635973471e-01 -2.936119993542345430e-01 -5.317802042118326966e-01 1.521766215843933789e-01 1.049703388571298357e-01 3.488174594717165511e-01 2.704173632969734120e-01 -5.723389095145948735e-01 -2.396476718092634406e-01 1.688065163726109597e-01 -2.533999649717555425e-01 1.692309691946979056e-01 -2.147368525267631945e-01 3.150676701925262391e-01 2.209845861423943014e-01 -2.630082213686394388e-01 -3.036631062358618460e-01 -2.632537067149391952e-01 -8.081402091341213234e-01 3.356421703265748402e-01 1.858994628375524316e-01 4.304016558214394661e-01 -1.574800718365913232e-01 2.958316218455080970e-01 -1.907908601006714500e-01 4.306704986028027093e-01 3.899156872159699194e-01 -9.717971609244378806e-02 -7.855274184739380328e-01 -3.862396046145878392e-01 2.635351045549277349e-01 4.270223571276994812e-01 -9.569949954924741875e-02 -2.191838125542950877e-01 -2.507350472180895906e-01 2.816586554747623761e-01 2.179623908393528986e-01 -4.698253439030722900e-01 -4.221760514247351881e-01 3.250263086821648661e-01 3.825786967369935176e-01 2.092518145565197898e-02 2.511454032356881250e-01
8.683126498457144349e-02 4.801958945599745648e-02 1.855098492427571799e-01 -2.782964149913678131e-01 -4.483092598725536004e-01 -2.973571442063704939e-01 -2.294546389753311100e-01 -8.658273015990371191e-02 -1.963119889420044165e-04 3.711854194932884959e-02 -1.392119245797620274e-02 9.793665164415642221e-02 -4.504845004766595551e-01 -3.756118801637611804e-01 5.908652326872829708e-01 8.026507708236119143e-02 -7.883476693733716401e-01 -1.525826133543414509e-01 -1.396504892995483471e-01 1.529351591143589956e-02 5.911239613915992251e-03 -6.711552093924424423e-01 7.439339519459488292e-02 1.929903982543080057e-02 -1.445637255702701962e-01 -1.821461726048433094e-01 4.095054017190063456e-01 3.261086766988037788e-01 -3.119757642415945664e-01 -1.977311323954821648e-02 2.540818743799076827e-03 1.575701836706363546e-01 3.989437681805494545e-02 2.502634026084997187e-01 1.215104073966631004e+00 -1.039830452120592275e-01 -4.257543866221761286e-01 -1.080388797422780350e-01 2.892027955568824207e-02 -7.790536240615768271e-02 6.018213161407853784e-02 -6.070601463958451571e-01 1.776533844303516685e-01 -5.162500612739331363e-01 -2.822454728499661503e-01 -1.715850788895614265e-01 -5.043483102677523977e-01 -1.533872835165025483e-01 4.987493404885968151e-01 8.142575749371258054e-01 1.317064204780970804e-01 -5.433839859129226957e-01 -2.739037592973973534e-01 3.292622737008362721e-01 6.939416664572810589e-01 6.793184757564545151e-02 1.962429818073510579e-01 -5.046421251755072168e-01 -6.266908590361817133e-01 -3.172982686993758850e-01 -5.149182561654442464e-02 -2.837884828169037199e-01 1.527728118338712165e-02 -2.714676401363775443e-02

W2: 3.037146422999777995e-01 -1.258858094552621210e-01 4.593941513140679667e-01 2.692664953793741378e-01 3.133166600141994440e-01 3.607075610821521838e-01 3.374722014040991702e-01 1.279779064104182296e-01 2.199502751240024756e-01 2.232112589031338412e-01 4.475266382029567946e-01 2.523818696641612069e-01 1.310043831913810797e-01 5.255507130350854927e-01 -3.225235762533830708e-01 9.650398777751411153e-03 2.061948012240720218e-01 1.666528327257987552e-01 -4.659582182072959100e-02 1.604179453044649595e-01 7.365975051638315452e-02 3.673660116488554062e-01 4.155031648179462189e-02 3.050546674763789379e-01 2.867066203648599432e-01 1.896630030410280110e-01 1.365422871081681533e-01 -1.574227047247003797e-02 -1.792592396694287216e-01 -5.066981076068621109e-02 1.523855804333254516e-01 3.612361356399853562e-01 -1.157576155590997469e-01 2.630923460844195594e-01 -2.651047085608636555e-01 3.508380290782205368e-01 1.807466711835617745e-01 1.886466359535376724e-01 1.773641230765526655e-01 1.200491579377048895e-01 2.055630965585155678e-01 1.944486847437510157e-01 -2.924377244676905629e-01 1.717256314096622383e-01 3.524185572875038752e-01 1.981025254528172852e-01 9.160678411892418660e-02 1.457316304846277277e-01
-7.543589704099665227e-02 -1.337743849788306794e-01 -1.375254417366588988e-01 1.083896894150282592e-01 -3.105758852541395942e-01 -2.195877390131623641e-01 5.166950862009745959e-01 -7.891031590427750875e-02 2.583899899712010506e-01 -7.799651620175659938e-02 5.748374160024121576e-02 -1.284736692248495404e-01 -2.693545188856646955e-01 -1.609385045565006611e-01 2.708366132665980877e-02 5.749995725401621516e-02 6.267221376421692330e-03 2.453280928632922131e-01 3.050125079838945097e-01 -2.683919846086744304e-02 -1.619955916822883868e-01 -3.058715024457591691e-01 1.570580651256762716e-01 -2.316896001475713673e-01 -1.597047846283200234e-01 -2.101370836638573880e-01 -2.288753991102685237e-01 -7.452061609613544468e-02 7.199411393941264337e-02 2.298474141725228015e-01 -2.700124618277311428e-01 -4.949369736447940538e-01 -5.882880285217131355e-01 4.098677285438648288e-02 -5.684666110824589808e-02 3.270669465834523115e-01 -4.960223806601332108e-01 1.102205244337491480e-01 -1.734455571383449746e-01 1.868064258278692158e-01 -4.326164640155198415e-01 -2.575268387293315198e-01 -5.700331889825908105e-01 -1.013923664640892508e-01 -1.909928109034455743e-02 -1.702208137474247873e-01 3.237377747242198289e-01 3.231616163940416175e-01
-1.085908455566085618e+00 -1.319453767423655721e+00 -8.025823559866323009e-01 -1.078996350435031948e+00 -8.103498745755436383e-01 -1.096925575998718205e+00 -1.692336350799313438e+00 -8.377735257317607820e-01 -1.415054500155760620e+00 -9.191926439959813289e-01 -1.139915356050004158e+00 -1.059523728079392546e+00 -1.007652466142910264e+00 -1.169503665453318630e+00 1.182143551136330961e+00 -1.404231342419380191e+00 -1.077209382656750369e+00 -8.970437732986786816e-01 -1.355337533321294252e+00 -7.606517990665335738e-01 -9.171776487981079251e-01 -5.960451881965500576e-01 -5.202412247501332354e-01 -1.378105055669068602e+00 -9.591485184574041201e-01 -5.907436039039692943e-01 -8.325202341126540784e-01 1.149949658191596225e+00 -1.194037183987341599e+00 -1.167321817806036277e+00 -1.057995311263149052e+00 -9.641312684012200984e-01 -7.338900346651875406e-01 -6.676284159028814669e-01 -6.690093602462726663e-01 -1.057998095382616910e+00 -1.297361268304391135e+00 -5.075222609096333715e-01 -6.711851213004244032e-01 8.757437923125892532e-01 -6.828578009039331098e-01 -7.581443030036180142e-01 -8.049782797127300604e-01 -5.675894480552509114e-01 1.056614630535411825e+00 -3.614464171686034843e-01 1.088413009067704440e+00 -1.068506782026735324e+00
1.642373761425496292e-01 -7.108849150535589967e-02 2.057871389008361918e-01 -5.129032756239774310e-02 -2.154616875953260513e-01 -1.862145647157284756e-01 2.132546114324861408e-01 -3.031732018118685201e-01 1.593474403916423643e-01 -1.625021656089444821e-01 1.747001519636339484e-01 -1.407670648704998917e-01 2.700592638988424388e-01 7.579315659856153409e-02 1.170594680625786609e-02 3.453599111155546963e-01 -1.466123549077419930e-01 -1.407629986303305658e-01 -6.904059370728020395e-02 5.944356711009563671e-02 2.073984235176919988e-01 -2.268237364427869995e-01 -1.988663781809724140e-01 -1.484991631668542145e-01 2.530006702211901604e-01 2.705770405462337713e-01 -1.270527138940102385e-01 1.454362080467561102e-02 -1.174895807754904181e-01 2.220308498398753938e-01 1.270319057969456766e-01 1.794761957151041684e-02 3.237892347893792100e-02 -1.802594492108107460e-01 1.233053157907794267e-01 -6.743848743808100732e-02 1.131294806879914877e-01 -1.479591917205818306e-02 -2.297452410241038745e-01 1.000564323316467802e-01 -1.859625043007378242e-01 2.716588352903448120e-02 -2.071255656622735808e-01 -2.446364748268841094e-01 4.874742340302800625e-01 1.175632257600974645e-01 4.258543737962653397e-01 3.838476739234536472e-01
1.964033648825169176e-01 6.977613723552796021e-02 2.583025384032295313e-01 -2.401147877552488319e-01 4.161797849408351881e-03 3.105315698821705106e-01 2.780241755565531769e-01 -1.094698499975748779e-01 4.160447490371252943e-01 4.270772812536288154e-01 2.662487040136679028e-01 1.626713778112763298e-01 2.696608646217688726e-02 1.479121769856852064e-01 1.176463808823108304e-01 6.775495379631094051e-02 2.302473824235994060e-01 2.026737121787361429e-01 1.980964618621655904e-01 -1.235882730409950808e-01 4.060596423280018463e-01 4.799065220889281447e-01 1.294439490452444774e-01 -8.898549603755339515e-03 2.614551128296314642e-01 1.040627694362025735e-01 -2.650218401242555519e-02 -2.480840017260217689e-02 -1.356197056295399828e-01 -1.241594744519131377e-01 -3.806948277034404027e-02 4.091051983868355113e-01 2.929723995792034574e-01 1.304360544374286723e-01 2.073895715754000002e-01 2.572068671731077560e-01 3.163061502392124913e-01 3.922869649338621145e-01 3.978849235574026810e-01 -7.068933174849791057e-02 3.607775925282478147e-01 -4.745247977466454659e-02 4.183411049002717652e-01 4.065188274903533405e-01 1.871241068359248139e-01 3.809142345158526149e-02 -6.534075092659932804e-02 2.893061333113050582e-01
-4.566038428516525083e-01 -7.952069275371798085e-01 1.944643122480146924e-02 5.274994874343928025e-02 1.738005172369488094e-01 -5.452395490410298917e-01 -5.164319926658522686e-01 4.203805014332814144e-02 -1.066212998059267170e-01 -7.044413315395567365e-02 -2.318129443512886023e-01 -1.776100203743211925e-01 -1.128445647466258250e-01 -9.550963322881088347e-02 -2.499854426907765770e-01 5.588349797682052866e-01 -3.921506523691518642e-01 -1.800635809144234545e-01 -2.675401436518864418e-01 -1.459579627457841533e-01 -5.213676012640977575e-02 -2.369995774707824021e-01 3.288225799122762583e-01 -5.649148332640336889e-01 -5.748662364828861504e-01 -1.707978654179797412e-02 -4.374006054698366119e-01 3.276470322168165694e-01 -3.848182067577518572e-01 5.316460189264266001e-01 -1.363959449554023318e-01 -4.547108113922475048e-01 -4.397105623338662950e-01 -1.699026635369090266e-01 -7.133070418961745540e-02 1.045597651152757879e-01 -5.863562254153054099e-01 1.946859562946021971e-01 -2.244821920083881484e-01 -3.445663012363414657e-02 -9.697631923464879178e-02 2.265158254381567371e-01 -2.336578996122864460e-01 -1.325300859811731277e-02 -1.823070489417175644e-01 -6.080520954208659123e-01 4.085855665596110353e-01 -1.755387375979814424e-01
2.480705401753131034e-01 2.858842317054738883e-05 2.302336971659359466e-01 1.198130877637831743e-01 2.097098809178037648e-01 -3.913152819284436423e-02 -5.243222472640707982e-02 2.175386399728571618e-01 3.131426608195632677e-01 7.104594515239520680e-02 9.880648486427190402e-02 4.805293115382881508e-01 5.133705887830877085e-02 1.659026551699124552e-01 -3.855567046809309506e-01 5.618490271121897583e-01 -6.720429567212278521e-02 -2.993471449168244591e-01 7.586871417292380126e-01 -3.642596161573088357e-03 4.121456351115095340e-01 2.683486789660374239e-01 3.143687695462968890e-01 1.213390845163289239e-01 1.289589276877767532e-01 3.331716137489912910e-01 6.370839737235235722e-02 -1.050431656810463799e-01 3.297741504312843852e-01 -9.104930945891533123e-02 1.009106612326649693e-01 3.368063052961482451e-01 3.482291321115431604e-01 -1.297802362221724959e-01 5.324281869893839059e-02 -1.186204309506763525e-02 3.873129688856304931e-01 3.377960203477740064e-01 -2.232218802534856328e-01 7.243068202477009887e-02 2.621266155705448964e-01 6.269334243001553064e-01 6.054343034188357509e-01 3.459872307689341175e-01 2.058944795353850610e-01 -2.151138212332714614e-02 6.514489019486059684e-02 3.965312891482159624e-02
-1.206484750387662452e-01 -8.563304195632358284e-02 5.804407291145050607e-01 2.629232833360273802e-01 1.598732577025889501e-01 2.372870202939321091e-02 1.744348096305146922e-01 2.973825165660037295e-01 1.665676363875200905e-01 2.249769921262241845e-01 2.248692347297953087e-01 1.568165643003031628e-01 -1.686266404404356545e-01 2.796901357152244416e-01 4.324901712098346840e-01 5.384779827186617629e-01 5.200399786389805490e-01 2.141059302209918358e-01 7.395170561691557509e-01 2.484968001634031975e-01 -1.862057803121589666e-02 4.108546634553752464e-01 2.994073318109280457e-01 1.389333386487553723e-01 -2.707487888523586739e-02 2.599148933182079957e-01 2.311618992507201709e-01 4.052655901693177909e-01 2.672137394384552778e-01 -4.258018917721410057e-01 1.273211025621862058e-01 3.428889981202604131e-01 3.698867066879067411e-01 -7.372494406252171062e-02 2.093323708296910002e-01 1.785788427697395167e-02 -1.471495211151394589e-01 3.070641830447827236e-01 -2.071396650598920919e-01 -6.124638565077801244e-01 1.323166853620627026e-01 3.641424615290055344e-01 4.548912368883959445e-01 1.184768514748022195e-01 2.537849375246011285e-01 -2.695661257355542739e-01 -1.279671672606149391e-01 5.365685709692648020e-01
5.042393786831911306e-01 4.422704140338257206e-01 5.956359976886467233e-01 4.157791879935717749e-01 6.714433524070289039e-01 5.143573170638398029e-01 8.483807692845780624e-01 3.076953100637513372e-01 5.691134252261919046e-01 3.630603499979572213e-01 6.466915545945973731e-01 3.632822421902667798e-01 3.669903670065259860e-01 1.638519693067568006e-01 -7.580629543384274915e-02 7.321709992244813670e-01 5.798187720001670709e-01 -9.447053353497024408e-02 2.855890369539315632e-01 7.938037616502116034e-01 3.876819508937165426e-01 2.818198008183319114e-01 5.882926473781612264e-01 3.505088012766433558e-01 3.122130802209740486e-01 3.734122870701351293e-01 7.280963213842838178e-01 -1.883536401094758894e-01 6.853677876524705281e-01 -2.174662216222681965e-01 3.661148422081702547e-01 6.543473023834132096e-01 1.184083122752572353e-01 5.207961227613671085e-01 3.547262049542349582e-01 1.841534933079443659e-01 2.468282801799031589e-01 6.709580679574995710e-01 3.075212524756422705e-01 1.084095350667489688e-01 3.694272325021125125e-01 4.468926554829611431e-01 2.084513211823493528e-01 4.735385957351367359e-01 -5.099719632436759964e-01 3.111478537598667549e-01 -4.320063146509729446e-01 5.904427994010135183e-01
-1.060270079001320170e-01 -1.819216594369102158e-01 -9.007693005492489052e-03 -8.519908489240539395e-02 -1.756120018030141727e-01 -1.121530880078639991e-01 3.457758225278669828e-01 9.734545421248938513e-02 1.024869043838538274e-01 -3.064740360269730401e-01 2.347568523541289087e-01 -5.540439719477328051e-01 -6.928939497287073257e-01 -5.174135527820548086e-01 4.854831681777268537e-01 2.915189873405468757e-02 -1.175545177969569560e-01 -1.393289052246569626e-01 4.625497025044226773e-01 6.974561416784112733e-02 1.968665660922865046e-02 -3.526117205679445976e-01 -1.391387593867527694e-01 -2.271661454555974347e-01 -1.830201663595904527e-01 -3.144269023717632949e-01 -1.800750729403587103e-01 4.246549670246357877e-02 -9.735250416941830520e-02 1.330573930615177314e-01 -4.617681794625993486e-01 -3.336795035698766898e-01 -3.601845206184817738e-01 -2.321549159106866753e-02 -2.279203479268655519e-01 -1.293401266058567534e-01 -1.718445080121888402e-01 2.421928377865064860e-02 2.252569820572492276e-01 3.511654368508383417e-01 -2.222883340663511231e-01 4.701285291451670623e-02 -1.302163552263392032e-01 -2.904725275491176206e-01 5.310777488378498612e-01 -7.641852413550709322e-02 2.196939668480980823e-01 1.794822613155868107e-01
3.010697183776576136e-01 -1.239769409365689273e-01 -1.538009863267801314e-01 2.357796658701677150e-01 3.889168577141903227e-01 3.052710968599980923e-01 8.623677075222169197e-02 1.719305641907249993e-01 4.010941219198487229e-01 -5.889888383683956202e-02 2.406531840326141813e-01 3.014352190599929315e-01 3.570205118477294826e-01 -2.136015449507455144e-01 -1.509651543845702548e-01 5.720416413991169513e-01 1.094778398861028512e-01 1.660498073176902845e-01 4.474801518649767496e-01 5.259473296530536857e-02 4.486322254817861066e-01 1.680669594399837596e-01 -1.130777421412473699e-01 1.605826425992784023e-01 3.904068611691440677e-02 4.206919580086632693e-01 -1.236741983918254878e-01 -8.804218543183236489e-01 3.270729349501938499e-02 1.456940620074754535e-02 4.912367411168104825e-01 -7.614978042154840927e-03 6.279560985353475899e-02 3.693094031724881710e-01 1.183968846586783558e-01 1.403578427052336042e-01 8.726972735454956165e-02 3.284398826802660820e-01 5.388034436076963862e-01 8.876376478127286085e-02 4.350117128361767616e-02 1.382655309661536547e-01 -1.735034716494932572e-01 3.304505789634868407e-01 -2.871886900895433414e-01 1.596136049127115930e-01 -1.230959581637936368e-01 -4.315896984253001639e-02
-4.798858138861418210e-01 -2.141265142512492614e-01 2.275122986750241494e-02 -6.724371419967493935e-02 -1.055049863852437902e-01 -3.086835512102760193e-01 1.237374813911943788e-01 -2.109285156051395049e-01 1.023792580494013865e-01 3.069591836077689706e-01 1.543139746518055189e-01 -3.788952550648860274e-01 1.480651363824103672e-01 -1.890173502330314004e-01 7.729140286291101558e-02 1.885556837134660102e-01 -6.347734611686776940e-02 6.239999969338724251e-01 2.352910847162252295e-01 -1.645555867455648080e-01 1.818454527516389502e-02 -2.355332672358949886e-01 -6.194670559533520943e-02 -2.507547169626564987e-01 6.225465045462193203e-02 1.260314092391363050e-01 -2.324656106646015852e-01 2.434858525938013440e-01 2.882849503033577121e-01 9.971509901737937720e-02 4.071792809702744209e-02 -1.826685762543351910e-01 -3.095283853561411891e-01 -3.862697663110158941e-01 -2.780911410900486214e-01 -1.723456620573808884e-01 -2.092019481588398289e-01 6.589385012394152752e-02 -5.184147974022664807e-01 3.346179479205591556e-01 -1.431795356622193038e-01 2.247355781548197526e-02 1.311688443328677955e-01 -3.540433995354798358e-02 -2.715418816689197379e-01 -1.310501373617387333e-01 4.365556643805674764e-01 3.001382437158678362e-01
4.583807480837796822e-02 -2.601959437121294516e-01 3.210108324133233992e-01 4.719388621107228898e-01 4.554966397928675303e-01 1.575684237747499716e-01 4.931200799631660359e-01 1.779711598290490970e-01 5.037555019119386301e-01 -1.003360827079814721e-01 8.558848564070161702e-01 1.758389694699822592e-01 5.431475859012596663e-01 1.550797293861718718e-01 -2.706090604666175903e-01 7.455527319160233368e-01 -1.932649459427061497e-02 1.385374581447333941e-01 8.700300219469626617e-01 4.292711210275411138e-01 -1.879171486985770356e-01 -2.895384514729434922e-02 -7.375397196637506481e-02 7.842713540119776450e-02 5.036350705116289239e-01 5.813294394817695998e-02 3.530134836388043040e-01 -3.897885895210128071e-01 5.878375338831834940e-01 1.634235614028105021e-01 8.203663809422520603e-02 3.411504795452575869e-03 -2.627722630567813078e-01 4.156679190324408246e-01 1.733322367659380402e-03 3.511462444890124934e-01 -7.213379950562387455e-02 2.359287540627634794e-01 1.210527469609696677e-01 -7.839415816624241418e-02 6.948916230968117669e-02 7.358318932587132495e-03 2.862981943835533616e-01 1.778486309464661352e-01 -4.369338017393318285e-01 5.506784747884265752e-01 2.665986948231179876e-01 8.035646702886545256e-01
-2.991759745938377124e-01 -4.168285885700510618e-01 -2.615306931047952088e-01 -4.406002628030425416e-01 -2.471544992359332726e-01 -1.840661018823951112e-01 2.243160884126318977e-01 -3.254043888521228056e-01 4.723328233252080399e-01 -2.831910331669454384e-01 3.189479989863360787e-01 -4.742102028957154158e-01 -2.856906186386217739e-01 5.760173530989021878e-02 3.862439134296331150e-02 2.592656160283112188e-01 -2.394572761021156182e-02 -1.604267679742240882e-01 5.261221968925419157e-01 -9.297686119661951673e-03 8.299373372935495152e-02 -2.550724790684559817e-01 -1.952778882577934083e-01 5.328333507243954853e-02 -2.641495796514337635e-01 -1.484927528558611654e-01 -3.987352624387279221e-01 -6.501709133063157120e-01 -1.012045927971004372e-01 7.118439768043457461e-01 -2.481619027774101538e-01 -2.508290036437029434e-03 -2.382489025806870941e-01 -2.767202849998052772e-01 -1.202425492147133762e-01 8.686897912491621521e-02 4.455564557700508743e-01 1.220951134916302763e-02 -2.561057116870174566e-01 -9.487243260889818841e-02 3.722617452608883298e-02 -9.311938816326564838e-02 -2.068650812179579357e-01 -3.813531673783544518e-01 1.660287921652571219e-01 1.040038880565527651e-01 4.540401245933070040e-01 -1.006078602048711759e-03
2.912041367632818845e-01 2.165774193436864337e-01 1.520640325453632147e-01 2.666512975338604097e-01 4.965637060241755857e-02 4.857852676982451490e-01 -2.119600400247808603e-01 1.141915638633903343e-02 9.678281701230136841e-03 8.976057889164763826e-02 2.753697291471376811e-03 9.209558265180772807e-02 1.983571446016803852e-01 2.160436034561258878e-01 -2.670258938223727951e-01 2.202152727136175159e-01 4.353136045834394285e-01 1.130048221276332837e-01 -6.187985193043896159e-02 3.497091009567079301e-01 4.992509198174373553e-01 1.751749366564027410e-01 3.397630806093878131e-01 -4.521419523167561488e-02 1.892120503569957035e-01 3.061022737558192763e-01 1.900079876716242733e-01 -4.248091896130589684e-01 4.112435885700100324e-01 1.382529873884612848e-01 3.628051120011595576e-01 7.968317958600125428e-02 2.081690579244245554e-01 2.792725576069549631e-01 1.680850730566531559e-01 3.156973492437243345e-01 5.106671668306209666e-01 6.442257586113978585e-01 3.182651737758900312e-01 4.789871197292304150e-01 3.401248342695968770e-03 4.582227025235467432e-01 1.312680981488312804e-01 -1.405420197407119265e-01 -3.123466924748668008e-02 3.812096983973909947e-01 -2.268849638328325480e-01 6.403694383395620582e-01
8.807785496993671137e-02 -3.459966487250382694e-01 5.691987891663603111e-02 -1.978867343801551937e-01 -2.759882840052685360e-01 -1.777405124315019347e-01 -1.567727532626581877e-01 -3.701865756863100820e-01 -5.499454987589481175e-02 -1.911001561976627405e-02 2.172124692449837746e-01 8.260153369693791492e-02 -2.593913800911544776e-01 -1.427932494582179745e-01 2.575273099736240523e-01 1.873028758121937087e-01 -3.641190314878419154e-01 -4.009740782938890913e-01 -4.733247070856298755e-02 -6.001253924646299948e-02 -1.930233339906037571e-01 -1.764966859342705363e-01 -1.163052676833236099e-01 -1.783916389452494533e-01 -3.126652737753654598e-01 -2.050764698147199971e-01 -2.938960366138001438e-03 3.328472288390642020e-01 7.082588641195770862e-02 2.305188346804400157e-01 -3.227717862413576055e-02 7.070428922948029937e-02 -1.038826855255765708e-01 -1.176988315495691995e-01 -2.642180743424033668e-02 -7.026046323164687919e-03 -8.744963625557829190e-03 2.347393637212520645e-01 -3.362676169314922359e-02 4.707924166277187572e-01 -1.041636844426110237e-01 -3.014810420991977935e-01 -7.501093065163097484e-02 -1.108443315404172014e-01 2.259878440634911223e-01 -2.269223006627119066e-01 3.977057591301005335e-01 -8.861926469109494831e-02
2.974479392146984202e-01 2.249313060412917176e-01 -9.250451914968979561e-02 4.549840641533143409e-02 1.047830588583777423e-01 -1.045763048592385364e-01 4.487415185262109141e-01 9.596606917281014226e-02 -1.262377951297883050e-01 -3.277829428031778791e-01 -1.099054422786630708e-01 -7.047535148077673124e-03 -1.758222935220658534e-01 -1.026807100255546640e-01 -2.380601292758378548e-02 3.086857077202760646e-02 -1.868621975972154514e-01 -3.387126906808037852e-01 1.544879147862919522e-01 -1.919064642236219254e-01 -3.217253987565205087e-01 3.988964327678187066e-02 -6.466311157364419693e-02 -1.492375095599870333e-02 1.001783883150357546e-01 -3.549289946481537505e-02 2.322530729886075618e-02 -8.901833289450268583e-02 -1.896373440024484991e-01 1.855670960939710401e-01 1.790000268213357837e-01 -1.331538378827781810e-01 -1.091211619572656777e-01 -2.824027771298944223e-01 -2.632423474654473072e-02 -1.472404741227716085e-01 4.274679973915516268e-02 1.859065467474641312e-02 -3.410905715151048567e-01 2.198503814979986259e-01 -3.092753460037440116e-01 -2.009797865199269007e-01 6.479246492699350379e-02 -2.291552321141455614e-02 3.921732450598397479e-01 -3.751194807956260147e-01 2.289260505861905048e-01 4.449619715771184481e-02
-3.112237768377788122e-02 8.552436811834621122e-02 1.401691552026129994e-01 -1.945827756799505259e-01 -2.389030135895168772e-01 -2.220503434809281140e-01 7.830146517606034751e-01 -1.911174917811950605e-02 3.469872734690348515e-01 -7.474227137164093926e-02 1.933312980605700337e-01 3.211693221902217794e-03 4.935546175366125124e-03 1.736178938099559033e-01 2.394194735383646522e-01 3.048055524916390424e-01 -9.317358284439926364e-02 2.787820797819899887e-01 7.573977746568827385e-01 -1.972752391471180658e-02 7.759050474040123102e-02 -1.885794202578077727e-01 3.673761684226633517e-01 -2.745495727177492407e-03 -7.267544756435720399e-02 -1.125678807948105598e-01 3.099504090294946668e-01 3.419439716319060407e-01 2.259249986518795938e-01 1.241642764962255924e-01 -3.039420815117183650e-01 2.752135269816551738e-02 -1.687258009419235205e-01 -2.841853147448203387e-01 -1.029418163802746228e-01 1.741228801561204576e-01 3.849992173065070467e-01 -2.073818355660499990e-01 -4.607722474951741476e-01 3.678495521072100427e-01 -4.201962363126354738e-02 -1.302248769383720084e-01 -2.504612050057413927e-02 1.645925283396038330e-01 5.378623686408018356e-01 5.410282366240734553e-03 4.894705307704353969e-01 3.270439545685718818e-01
-3.974394814943086884e-01 -4.343366304116394461e-01 -5.443602499351077872e-01 -6.737286301457018345e-01 -2.677871735173598666e-01 -7.053829796192143675e-01 2.082954546616758440e-01 -3.691562354446382144e-01 2.250131150297887406e-01 -6.247689092263053467e-01 -3.573073742339732406e-01 -5.036619327258717860e-01 -6.162461316732281702e-01 -4.000307301944387439e-01 6.760765669651659371e-01 -1.673728414900408357e-01 -5.174552176042793716e-01 -2.837206647673507498e-01 -6.764668308610805904e-03 -5.150028332798588515e-01 -4.268311172640082418e-01 -3.165280131993909452e-01 -2.166484962685488389e-03 -3.943176518043624568e-01 -5.413326927442242420e-01 -6.067433327143112454e-01 -2.747197787005629110e-01 5.812402236019589274e-01 -2.891644228237103542e-01 8.095837466840138941e-01 -2.083877484173171368e-01 -1.646336408888423863e-01 -4.350547275152543691e-01 -3.846790426140486718e-01 -4.868180527698356963e-01 -2.672834839683277397e-01 -9.698222617073390950e-01 -4.605738902552500291e-01 -3.517407247979402740e-01 7.593644207232354004e-01 -5.748291102513016781e-01 -6.324847310344801077e-01 -6.641607367013212526e-01 -2.736845456339281335e-01 7.463025376772848274e-01 -4.992295501191508222e-01 8.434907758826220014e-01 9.043474224338242384e-02
2.022165814784227522e-01 1.298889077991601804e-01 2.921835855092675890e-02 -7.543605888299900752e-02 -2.231046858141787215e-01 1.504125616217524830e-01 1.834635569720907688e-01 9.409443663656685830e-02 2.524353618301141688e-01 -6.643789189663949768e-02 3.920344612371814974e-01 1.352917996410016865e-01 3.630365794658619305e-01 1.007629690229696062e-01 1.371059761586167769e-01 1.294784167834387989e-01 3.222962190860788056e-01 -2.556521942758031574e-01 2.164639271110414542e-01 3.582568260230235141e-02 -1.541286426560352640e-01 -8.350748162179176537e-02 -2.652889814713857985e-01 -4.354852293193186424e-02 -1.319615400553962870e-01 1.950046055736175399e-01 6.010172970314314050e-02 -1.662459717017385763e-01 -1.418616778059216821e-01 -2.319880397175259623e-01 1.608170007359334963e-01 -2.290955899785411878e-02 1.472946760006877132e-01 -8.478502029022888520e-02 4.303637913160153206e-01 7.652814925169805493e-02 -8.885574619251786210e-02 3.164771823399397666e-01 3.737132452237771907e-01 1.509526002343671014e-01 -1.305522495918488846e-02 2.425332287641663032e-01 -1.775261735724685541e-01 2.706865670145947589e-01 -1.771382007026347516e-01 7.860727869871719786e-02 7.375988365569072225e-02 4.241577742717673183e-01
-4.909138808202470061e-01 -2.345164644714652080e-01 -9.845220983194923059e-02 -7.373583951872397790e-02 -2.396521788952138687e-01 -6.291170813358835101e-01 -1.791707046972435269e-01 -1.429494842320134518e-01 1.900905550776625375e-01 -1.197087938698942478e-01 -8.304920323019759909e-02 2.652087126793667773e-02 -3.828772745103422026e-01 -3.749978870410326445e-03 4.654123054796783232e-01 1.081787929245991153e-01 -1.458449762030504249e-01 -2.763288071609673047e-01 -2.156561684287400804e-01 1.356591870390495445e-03 1.474596151186781390e-02 7.616905035382737221e-02 2.266118910292701238e-01 -2.346412815860572376e-01 -8.711496944235945505e-02 -4.775132112090116343e-02 -1.360489497201013143e-01 5.052154277395509707e-01 2.068087676768049984e-02 6.929056796817348873e-01 -3.156962064053729922e-01 -2.612811333939754066e-01 -4.402548420428710751e-01 2.485563865100066591e-02 1.028333220141514487e-01 -3.601512492799939236e-01 -5.826298895464069316e-01 -2.552408976332570800e-01 -2.752924571084130467e-01 1.781599217993454776e-01 -1.367710572149669346e-01 -3.230520236207146123e-01 -2.708640854743056270e-01 3.976055687415131629e-02 1.168573510935431436e-01 -3.313060634063055843e-01 1.472519909303145191e-01 6.983667578480105657e-03
-1.381105363171556896e-02 3.338291803450708084e-01 5.595623642186538932e-02 -7.808300111171009861e-02 9.242365381786354916e-02 -1.074730225379423171e-01 -1.604382380034615752e-01 2.285440759754930329e-01 -6.342493173825077823e-01 1.699988584007986470e-01 -7.413922514525439489e-02 -3.098864757860937957e-01 2.768735038576009555e-01 -1.755872225003810294e-01 1.104537086730132123e-01 -1.269018644919933658e-01 3.447946164557593590e-02 1.074595512158903060e-01 -9.042427821567372570e-02 1.006859579395134041e-01 2.898816687108973431e-02 2.576952727654004960e-01 -3.936767514256495071e-01 5.775086744697770919e-02 -1.407500962341054658e-02 -1.188052372389161448e-01 -2.103898720265568734e-01 -1.254429890598548689e-02 1.111642158113636536e-01 -2.788674640498196577e-01 -2.005684651250675202e-02 1.940969588315855643e-01 -1.924404195112726923e-01 1.833315867059184534e-01 4.491143677538079748e-01 -1.221291760639107438e-01 4.614142518452403752e-01 -2.813630940646716372e-02 1.574184418350489389e-01 8.219221709493244876e-02 4.509747065465232185e-01 -4.798175354371610191e-02 2.740334807512639359e-01 1.344968116717383810e-01 -5.541464720542354366e-02 -3.928717051013758677e-01 2.613777987225837651e-01 7.678599064438232369e-02
4.884444796046822496e-02 -2.678866036226004374e-02 3.007428119541141198e-01 2.748810795625342696e-01 3.125675710336490165e-01 2.316804764673636441e-01 1.917011706974035279e-01 -1.288020042733560300e-01 1.520263667676821084e-01 1.113286387487468915e-01 6.774618162846184344e-01 2.210994163808480406e-01 1.323753868433343306e-01 -1.678086014734798959e-01 -6.528131082004633157e-02 2.629123090928343620e-01 8.208150412654158234e-02 3.190435191862410202e-01 2.558054426863950459e-01 2.804128844951486177e-01 1.761905848325441559e-01 1.831932958362096908e-01 4.113303292923521925e-01 4.541200843326751585e-02 1.247152708487282297e-01 -6.505136345279328991e-02 1.521951109881475028e-01 3.301408228281066948e-01 2.584479031083686817e-01 2.905920693146359438e-02 3.199480930278381097e-01 1.945694676366651055e-01 3.440451808318551463e-01 2.371523704717619641e-01 -5.735056892803225975e-03 2.740633840009089051e-01 2.760827675401444359e-01 -1.506931486545537956e-02 3.264213175439698023e-01 3.711162288728435676e-01 1.150268223893037151e-01 -6.921744874223381694e-02 1.215313007948738977e-01 4.353174086263218445e-01 -1.527338861892296451e-01 8.512023490841398587e-02 -8.706261121186763263e-02 1.708132316370436221e-01
9.237741942722378641e-02 3.424006922892287030e-01 -3.188423221133742519e-02 -5.520416299312286279e-02 -8.984331177429501214e-02 -3.924919090162130170e-02 -7.173481089945148159e-02 -1.198394771728660685e-01 2.691833074098784473e-01 1.618518561911925502e-01 2.669900214361276558e-01 -8.803290778574936193e-02 -4.236527381937228720e-02 -8.028762693224905655e-02 5.007478725729324481e-02 -1.101105495722579791e-02 1.928513143292826526e-01 -8.826176206478715536e-02 2.215904220995208451e-01 3.022135558203921102e-01 7.439159637333216113e-02 3.935640320616166921e-02 1.340205146163118144e-01 2.911095916504899406e-02 4.400209601538032644e-01 1.113253429349119056e-01 2.030993400185203690e-01 -1.873502219829346616e-01 -2.753060573294530133e-01 -8.633605069128450285e-03 1.876237780081355111e-01 -2.582497947176069786e-02 9.662615913404690171e-02 2.493619573776385216e-03 1.489288968096249000e-01 1.825769891725762817e-01 -9.840122433111446465e-02 2.258044107283801727e-01 8.969557173603621980e-02 -4.104699385705790765e-02 9.928332893602399845e-02 -1.238567892230474643e-01 6.567564902992838460e-01 5.566729612267592442e-01 2.018995016907400297e-01 1.804448558067746622e-01 -1.142187426471212297e-01 4.868947582304649635e-01
1.768572711636675621e-01 1.993810543478935216e-01 4.993306650235572741e-01 3.334851513087848107e-01 1.601533275477285689e-01 2.212015575394107036e-01 4.256060287030521971e-01 3.120278659475048122e-01 7.583913309989102070e-01 3.427659671806783104e-01 6.204075848193664200e-01 2.324384723757720317e-01 4.380090741244505592e-01 5.940438692994065573e-01 -6.214629229001507049e-01 5.643330366064832626e-01 1.670191082523178605e-02 7.161939812270232131e-02 7.214040719223702158e-01 4.996464874453478977e-01 4.015111747178754520e-01 6.769234865862866490e-02 6.085285051110331800e-01 7.754315149018188580e-02 2.839156468588075466e-01 3.169365043464962284e-01 4.615165817104047719e-01 -8.194560188271852175e-01 -2.824861841921031957e-01 6.553023538040925189e-02 3.592926469301917503e-01 1.140436537153054763e-01 -6.376128632430248799e-03 2.314747080433073034e-01 3.805901166396538637e-02 4.213633438785983065e-01 3.949977762638363088e-01 2.183253501000353702e-01 1.873584719447438443e-02 6.516879843375179837e-02 1.171384872499218882e-01 3.487345758520570826e-01 4.357359510368379318e-01 3.229058577433999710e-01 1.643792551143998804e-01 3.516671965077783901e-01 -1.845064605759101084e-01 7.094608485426271427e-01
-3.002505647620502538e-01 -7.639285677422740228e-01 -2.739066972679932155e-01 -3.222956674244141229e-01 -6.667698754715659648e-01 -8.398499863389201625e-01 7.760965342368788544e-01 -2.331730159384040602e-01 6.656712359506705701e-01 -3.469353485894515754e-01 4.873595853840553827e-01 -4.181520824956587168e-01 -5.019000929322833260e-01 -5.162905392038712460e-01 5.796928144182441622e-01 -8.843979807346025179e-02 -3.378047181162542323e-01 -3.198305008674008909e-01 4.921923998257462518e-01 -5.723230748270253798e-01 -4.624198255377144906e-01 -5.921776937962518472e-01 -2.213414882423742069e-01 -1.264632028462346236e+00 -3.272432980894499632e-01 -4.091085091589553024e-01 -7.204897599560878829e-01 -6.037405990407357370e-02 -4.229147452657042866e-02 6.863600591907218496e-01 -6.576483776538409876e-01 -6.295812762321190137e-01 -4.203987218274901627e-01 -6.792147518815310203e-01 -4.827988567825303723e-01 -9.379049006961716339e-02 -9.640602603288738193e-01 -4.628502454194222127e-01 -1.418035519038675363e-01 5.377389098889256980e-01 -8.157320657992950252e-01 -2.846733802955829229e-01 -9.947854221922698414e-01 -2.163543678853678542e-01 7.053053631835620729e-01 -2.541863477215897116e-01 7.352822594132633061e-01 4.082932471710574718e-01
4.405419604500974140e-01 2.577206584629526120e-01 1.722506295005193089e-01 4.156280666379256750e-01 8.208684239802283011e-02 2.865335732653830347e-01 5.044578625986784193e-01 1.368668732563307067e-01 4.919060606324833773e-01 3.565746217791225248e-01 4.037826458645078498e-01 2.578527319049282451e-01 3.010985978976726263e-01 -3.765977411242912160e-02 4.120840626326195688e-02 5.206908527686192611e-01 3.408222047918665343e-01 4.403403239388622437e-01 1.823893690455182237e-01 7.003755503852560071e-01 2.793731942475304320e-01 2.107973772233237009e-01 3.839875005305741773e-01 5.249094739359227990e-01 3.780857064139205304e-01 3.643172042877866335e-01 1.355961234986343689e-01 -2.523383524709154613e-01 3.308398002035740082e-01 1.351760458181733640e-02 3.995501544676285932e-01 4.434376428364633638e-01 6.603455594870475398e-01 6.146081011593965693e-01 4.800801731238167336e-01 2.952210349274871359e-01 4.445040422257813817e-01 3.413495450696186762e-01 3.419260225656305940e-01 1.649936171218127356e-01 1.485712766348293024e-01 6.098292445565510755e-01 3.727683706371072714e-01 3.535546498277888916e-01 3.852531341438813345e-02 3.530056513394900786e-01 -1.064248655367600570e-02 8.526936140242471485e-01
-5.611665010791567765e-01 -2.650549300843952349e-01 -2.741508128817028433e-01 -1.137229669549561090e-01 -2.418716301291171378e-01 -3.185650442536948623e-01 -4.926339849134531157e-02 1.535132379735352492e-01 3.727328891042447356e-01 -4.415333873888805938e-01 -6.417255144970061831e-02 3.834477354243286951e-01 -8.485806256514873136e-02 -5.309479481098886566e-01 7.936338702834168368e-02 1.466276776237118995e-01 -3.108370305006511458e-01 -4.631623746203077790e-02 5.588999529212018702e-01 -2.350698013089267402e-01 -2.414201143584206455e-01 -3.203498836116663306e-01 -1.306424224113115484e-01 -7.403959374032964558e-02 -7.807447964898500681e-02 -3.994150562730875986e-01 -1.856146030828706994e-01 -2.288572764015856520e-01 1.623155964681212426e-01 7.908703892055860551e-01 -9.303770641385047946e-02 -2.054264669179400593e-01 -4.185277478314147759e-01 -2.415664009645255017e-01 -2.126109637429904331e-01 8.508313388455326920e-02 -4.690100839144167866e-01 -3.351357497999763596e-02 -3.877598971226576818e-01 5.377873739953544785e-01 -6.656509469869220652e-01 -7.377128885200142511e-04 -3.340164956864432599e-01 -4.380517793105809798e-01 5.372133223606199159e-01 -2.074244986994515649e-01 6.107941615526712997e-01 3.308242656448184271e-01
-5.826085593014920239e-01 -3.380853860087584817e-01 -4.557406632029125521e-02 -2.332354174447457892e-02 -2.423070430705863143e-01 -3.901805195288557959e-01 -4.760910065164732918e-01 2.493787830510502818e-02 8.171148713336595648e-02 -1.136764357307662177e-01 -7.304702581952364771e-01 -9.997707454428572671e-02 3.239466469894200507e-02 -3.930339344316853278e-01 8.456930571941566332e-02 3.615574707581105385e-02 -3.109613657073851400e-01 -1.765786677657921744e-01 -1.392086371069723993e-01 1.241440074441488017e-01 -4.228948837597462651e-01 -2.174882782696571093e-01 -7.092544922280631658e-02 -3.244061675276176948e-01 -5.344611429915954171e-01 -4.984305859663092364e-01 -2.074554876559023542e-01 6.982525167528842447e-01 -8.239683213203234935e-01 -3.745221070909387356e-02 -8.211711828118209433e-02 -5.355342874625275140e-01 -1.931076135299645072e-02 -4.840000198513551566e-01 -1.215657309382825318e-01 -6.272002469592533047e-02 -4.570508049756070168e-01 2.286697587071117449e-02 -2.945745025787385729e-01 3.804766540110269268e-01 -2.251015134115742222e-01 1.323351458053398100e-01 3.147719550747219430e-01 2.841983499815927683e-01 -1.165052440409697701e-02 -1.745301042910011036e-01 1.628369620040483190e-01 -1.821506029389506620e-01
3.423162001581395719e-01 3.005838813474108751e-01 1.067003475444910088e-01 3.424782435790604262e-01 1.522787654473694852e-01 2.817219621862058765e-01 1.419632468843850859e+00 3.862004745707202091e-01 1.100775824443674278e+00 2.949311171031755441e-01 7.765969788409932129e-01 5.885236379072162488e-02 1.561643418260550420e-01 2.156939750794471533e-01 -5.437482324135241019e-01 5.600360337296206303e-01 3.530833781760212564e-01 3.066297618870353903e-01 8.434614318626937335e-01 2.242198635697316145e-01 4.843059246473106483e-01 5.430380332507906971e-01 2.395610696015803287e-01 3.242125260201284553e-01 2.438618120280035828e-01 2.359782478168640507e-01 5.645265254152315171e-01 -1.782569389652209901e-01 5.829801996870282998e-01 -2.432900318990397770e-01 1.462315816887367337e-01 3.262921452023321289e-01 6.785407184911018685e-01 -1.493062135280493752e-01 2.030930223500717891e-01 2.925253134159696011e-01 5.581464290354417601e-01 3.829993359022580424e-01 2.638720589620198731e-01 1.380878435360312073e-01 1.209176435750986961e-01 2.957018037920122744e-01 4.709800708995176555e-01 2.197534418506163489e-01 -1.251465600641728237e-01 2.820975881235588401e-01 -8.201685827210802859e-02 5.470395090182023079e-01
-6.332761699636135777e-01 -9.874971674571173530e-01 -7.542296893518209977e-01 -5.003097372492956163e-01 -9.287409195781235471e-01 -3.578673964331733903e-01 -6.858776124414597275e-01 -5.987422523986042355e-01 -1.206296020021847548e-01 -6.168230586263852011e-01 -2.137825551681804825e-01 -8.196286166453040645e-01 -3.144480709387518780e-01 -5.177390718058444419e-01 7.871267039792777531e-01 -2.085757578233390364e-01 -4.292728837629530281e-01 -7.018257476896198055e-01 -1.756999535492034248e-01 -3.016928325320423210e-01 -4.686493312510291442e-01 -4.717975013785766780e-01 -1.477388488940570288e-01 -4.349264252770681516e-01 -4.385873354891717812e-01 -6.945599778307502969e-01 -4.866140826284833243e-01 1.178609057462145504e+00 -7.597375966835984151e-01 -1.126568937094910156e-01 -5.124693251674475869e-01 -5.335018806160084504e-01 -3.200441738384060542e-01 -2.313080786019277579e-01 -7.942708164489694633e-01 -4.990061247305051517e-01 -7.805002534750280496e-01 -4.018117493172252419e-01 -3.080828571947906713e-01 7.975641128333270657e-01 -4.014818456180677120e-01 -4.491086965194632241e-01 -4.989639035952919133e-01 -4.144972561339902994e-01 6.332505490487371214e-01 -2.668528410286262753e-01 3.228932768165860834e-01 -7.412839619115970669e-01
4.241227339070767766e-01 1.214781427525963714e-01 3.267433902829554593e-01 3.749637728426873928e-01 -1.890018021478550025e-01 5.196508908888907152e-01 1.670357286159538102e-01 1.728370244937875791e-02 4.893638853556030455e-01 7.676460000846566101e-02 3.692242623189198603e-01 4.046968496974760465e-01 1.151852140155571608e-01 1.054558052566482995e-01 3.576678793408947232e-01 4.948954104082828320e-01 3.001431834100304896e-01 -4.128120773753872486e-02 6.602885385745690394e-01 4.017216928420117572e-01 -1.993933034520800895e-01 -4.901961314389536445e-02 1.132896359440656309e-01 -5.887380406783740416e-02 2.117729029617463343e-01 6.166138306159249516e-02 4.153642776320700669e-01 6.510698967178542018e-01 2.601595123541262655e-01 -6.808892832010914331e-01 1.804739169129660481e-01 2.051637273955624896e-01 4.158732642817243308e-01 -2.019185245619662186e-02 2.785075508946276424e-01 3.632142255421189764e-02 -3.053797973611282676e-02 5.700034654617419649e-01 3.501481865853319775e-01 3.617227575474561696e-02 1.440405617816040984e-01 1.135740611337055783e-01 -3.589204995856020569e-02 4.125419512865652893e-01 1.413842593137306924e-01 3.225897419580120995e-01 4.961861256068250681e-02 3.981034066854378106e-01
9.757339476938768283e-03 1.904538885002615978e-01 6.631128938759141278e-02 2.393245204959574823e-01 1.640849071445192320e-01 -9.351838337671884716e-02 1.559060622387675732e-01 4.752041699314062118e-02 4.315492156224464138e-01 2.347491094508655229e-01 3.733566771984192512e-01 -2.045603926916319260e-01 -1.503191579472576422e-01 1.478121181436763965e-01 2.337317351577029856e-01 -3.570933411558613324e-02 7.562440693005081926e-02 1.053484998096904657e-01 3.249608229821761007e-01 1.632980628614408014e-01 -1.910442057027468901e-02 2.528705034595543633e-01 -1.085383029323013920e-01 2.310172407188676447e-01 2.057314641919818221e-01 2.141084546612925521e-01 -5.550192962793064691e-03 1.437941240324961956e-01 2.740892427922352881e-01 3.961866285774290897e-01 -1.083147173140921043e-01 5.676550424011055475e-04 3.111469804343766632e-01 2.525555530793681391e-02 -1.196791368922990872e-01 2.189229378727289566e-01 -1.870474893998671506e-01 1.705945005870783404e-01 1.007599588726320050e-01 1.671583856101516719e-01 -3.002114938055242335e-02 4.333374326246161590e-02 -1.693765205743249513e-01 -1.473544376440564796e-01 1.508900300280350826e-01 -9.431316715153933994e-02 4.800078656100687513e-01 -4.601493542084521965e-02
4.301727501763431827e-02 -3.994787485811275851e-01 -4.438109822715582964e-01 -3.141167318185327795e-01 -5.153622032993440127e-01 -6.043123951873144994e-01 6.257135591822526877e-01 -1.096399603985675486e-01 3.779594740037287015e-01 -4.723040943378832290e-01 9.264519861063104378e-02 -4.772098105615930619e-01 -1.240281160708642111e-01 -5.484944817540620132e-01 2.833746927219785716e-01 -3.556459754345507596e-02 -1.962387262170865454e-01 -2.429404141851098098e-01 3.408074703296981589e-01 -3.701768306022495958e-01 -2.375342515203656135e-01 -4.611061610830152202e-01 -2.153625568605169738e-01 -4.590296992509098062e-01 -6.465831223444482023e-02 -3.703788868864091310e-01 -9.348934188194331363e-02 -5.974812289817813538e-01 -2.071188006090442235e-01 6.366497296645039494e-01 -1.305524355497674205e-01 -5.400489176268326030e-01 -3.456000463913104781e-01 -3.144687655567932061e-02 -1.790093129467099919e-01 -2.782199454210176337e-01 -3.417359420769675027e-01 2.034027023059067907e-02 -1.190080552787936424e-01 5.510782047382111193e-01 -5.770306764918420317e-01 -4.604818438774739842e-01 -5.186297781233962789e-01 -2.500290363020598594e-01 4.034102724718753308e-01 -6.477760676986267230e-01 6.956239039266531865e-01 2.125314521218688024e-01
2.038770732642112837e-01 -3.977738744773834378e-02 5.045326585071436831e-01 -1.001312842431374556e-01 1.634795493347863948e-01 -1.237271229965790365e-01 7.694628202056240651e-01 4.034690237700726961e-02 9.367249201855633034e-01 7.297095030495182044e-02 7.711408645856163702e-01 4.780869183445283360e-02 -2.421902675780655267e-01 -1.088504709200847909e-02 8.755617623829410612e-02 7.166326803256000133e-01 6.056187449966968783e-01 1.078755464862335561e-01 7.487516106418988793e-01 3.212860967029192993e-01 -1.237182601889583039e-01 1.041341566928907607e-02 1.837132409625632512e-01 8.526771315988890265e-02 1.339087229912842292e-01 -8.752203699049612706e-02 1.005148458638860376e-01 4.745802668081723352e-01 1.023576870959456292e-01 1.848438169721582924e-01 4.030037603037656124e-01 1.638951006726339574e-02 1.025215354668758266e-01 -9.155592819089893031e-02 2.535028961988132490e-02 1.681224085893112674e-01 -7.665365088257214410e-02 -1.234522123920302195e-01 -2.495684180589264056e-01 1.449284789262669515e-01 4.459430012166618745e-02 1.894680976586308463e-01 7.324637039598606847e-02 2.670651575758041241e-01 1.680251441524865941e-02 3.520256913062634607e-02 2.302861102449972885e-01 3.281684064466074968e-01
1.552849404246895437e-01 -3.940237420022286996e-02 3.675205779155273356e-01 -2.334490765016243932e-02 2.654691996695799361e-01 4.196709851513886758e-01 8.714721770059458139e-02 5.945124917123516955e-02 -1.133827861431331574e-01 -3.208325222722758358e-03 1.149811936477943830e-01 2.526746871557979945e-01 -2.404087469511958716e-02 2.687269502095866042e-02 4.218226308385623208e-02 1.136914309616049723e-01 -1.195872866657156780e-01 5.356776005107333205e-01 1.521943812168819743e-01 1.453118235101505118e-01 9.065607288510196468e-03 -6.402066721489030506e-03 -4.973843997775970888e-02 4.637354652062946614e-01 -1.326538414527153875e-01 1.617686063519091222e-01 1.319374700444672643e-01 -5.218278860804416164e-01 2.481473272073770053e-01 1.803891281011807401e-01 2.065664476008340356e-01 4.692674042696380610e-02 -3.976214007285999025e-02 4.612103576468985777e-02 2.383812904818565226e-01 -1.031951684908165474e-02 3.186868067462492182e-01 8.613982773316132546e-02 1.582810467362861517e-01 -1.116282161008509966e-01 2.105573634854092935e-01 1.473413549610219295e-02 2.870360568469913498e-01 1.166161553913141607e-01 4.387530721063045980e-02 -4.821629436796595614e-02 -5.386856074203480449e-02 3.056587856601184483e-01
-2.905939546690450848e-01 -4.033581176675746782e-01 -1.710989947250755039e-01 -1.752792469428026689e-01 -3.781183921590864916e-01 1.301667144977563806e-01 5.369761998593126640e-01 -1.563603681360559716e-01 -5.009829589649057446e-01 -4.223788495825722689e-01 3.436895397062827290e-02 -3.432455215473542154e-01 -3.386079823657698884e-01 -6.645631490648775674e-01 3.578857205484675119e-01 6.507367802977299942e-02 -5.306479563468147198e-01 -3.226614121312251782e-01 -6.618009271554121421e-03 -7.889125568101836850e-01 -4.132925088332478625e-01 -4.146636061948175689e-01 -5.616836988374096507e-01 -5.001721367446242406e-01 -1.880282299087177034e-01 -2.476073496799792439e-01 -2.523758119140200318e-01 3.019127988389112005e-01 -4.432467284638028637e-01 6.464005009775991573e-01 -3.685631616956480672e-01 -8.132415221296870889e-02 -3.149067885202256473e-02 -3.456014596495559088e-01 -5.856569363453919541e-01 -1.853385447683263410e-01 -4.216761362864104301e-01 -1.995150716758759546e-01 6.510040606670306797e-03 1.242298077189979422e-01 -1.317267283990751769e-01 -5.807664043395539821e-02 -1.646456168933148057e-01 -2.518523106323295457e-01 3.566857430869180834e-01 -4.915538083319631601e-01 7.255974447613794398e-01 1.974077981466268103e-02
2.244539287435110830e-01 2.160650184095277426e-01 3.466214839337042330e-01 1.024622515968846431e-01 9.779991164208388932e-02 1.542102840920928919e-01 4.899688420991927806e-01 1.481915499604874176e-01 4.795334271727853537e-01 5.494047455046428829e-02 3.213178541263814192e-01 5.817338132907128312e-01 2.015287432755398511e-01 4.953428060491470997e-01 -7.755317540352568706e-02 5.053551287392863411e-01 1.986754668669800938e-01 5.495420556812893320e-01 3.044793331901767819e-01 5.815433981198717683e-01 1.256649937915698401e-01 1.375816508414632600e-01 5.139502665439569379e-02 2.579041671354049270e-01 2.261290614564583079e-01 3.073216694400365042e-03 -8.712612907006285490e-02 6.633854584881006267e-02 3.080772839297996057e-01 -2.643788851575246679e-01 1.743497824257366213e-01 -4.289119230677005366e-03 1.780481312015953221e-01 2.154389504995333493e-01 2.897732774086405616e-01 2.054460190354253091e-01 2.573681189852103923e-01 3.813440154612947608e-01 1.144857362367417003e-01 -5.564697122857460709e-02 2.136272643439904029e-01 3.559332202676715462e-01 1.185718396346111675e-01 3.952032071686689685e-01 -1.285239965342572024e-02 1.167570797738932409e-01 3.745590387270262417e-02 8.190542017270498187e-02
-7.404255059110709247e-02 1.980092155265791853e-01 -5.736086371713939452e-02 1.004260155409211347e-01 3.498856781843530106e-01 2.257361754894548211e-01 4.580752195880360422e-01 2.341913754055020835e-01 3.328437865950737984e-01 -5.060586293481821735e-02 4.626724215269522600e-01 3.606673990498325821e-01 1.826082643087682256e-01 1.922482910030816339e-01 -6.375388068667711683e-02 3.968511560335868382e-01 3.213992501827715453e-01 4.454941448504192714e-01 5.953597220254165379e-01 1.913512331127078248e-01 3.171148762069999072e-01 2.135139217521257460e-01 1.390012370197534486e-01 1.419292896375711766e-01 1.834041474935235450e-01 1.300939436824957440e-01 5.243303223294989435e-01 4.885963531111570807e-02 1.676730222068329723e-01 2.904239399800117444e-02 2.650444606698041938e-01 1.469377634140406688e-02 -8.819530816711169952e-02 3.532859690241422213e-01 -1.090106842532962209e-02 4.741534499148087889e-01 1.364820444559629309e-01 3.067221723507129738e-02 1.887738412555414191e-01 -1.521762726764337714e-01 1.700263041389785679e-01 3.722369491436477440e-01 -3.314084439977192653e-02 2.148473579986802107e-01 -5.066885712530677655e-01 1.141501371915779189e-01 -1.853086480918082479e-01 5.759969745915564099e-01
1.390437609343365410e-01 3.761297052821573061e-02 1.124212101973645350e-01 1.733644738278920534e-03 2.126756616301569425e-01 -1.469446044242723737e-01 6.070684483645450991e-01 1.794650216351458549e-01 5.758376284013665414e-01 1.187859146915927651e-02 4.400880737229793671e-01 2.643976151159653787e-01 1.772999415697179004e-01 2.780705291229461085e-01 3.894161457138277382e-02 1.746940758066991561e-01 2.926473472492954198e-01 4.810528184603988233e-01 -7.740488436533862759e-02 2.391570231970082949e-01 -1.014542082214689861e-01 2.118742865874027881e-02 5.885697704510172573e-02 1.350980098849135225e-01 8.305391025751439338e-02 1.975249245612002713e-01 2.347587375699911882e-01 1.516073508567498430e-02 2.384545272944800509e-01 -6.056013155012435201e-02 2.044356786787045743e-01 1.381393188299670227e-01 5.340076057192657405e-02 1.124037747359021150e-02 -1.916642133254965186e-01 7.312892443403406530e-03 -4.700107872163551692e-02 7.770229122260935428e-02 -1.505021304598840037e-01 -6.385921766238493447e-02 2.342050370593038583e-02 1.586198298279186680e-01 1.663723405844459158e-01 3.326428462943565312e-01 1.412355238058017881e-01 2.958070588555397964e-02 2.582644283734187307e-01 -4.316447752065524085e-02
2.377644927188465596e-01 3.719842680770654164e-01 4.684127106464834878e-01 1.618634885197824946e-01 3.672738833673503955e-01 1.020100304722735135e-01 5.038738534715001549e-01 -3.433468958891427308e-02 6.380095800599400180e-01 2.558547941436873918e-01 7.481536766717451492e-01 3.591180344090018073e-01 9.643344730701518264e-02 4.357000183457748754e-01 4.891746880688368493e-01 1.010964746214118026e+00 3.635618241857451749e-01 3.521037451535892204e-01 8.361044188230850605e-01 1.900928801716011141e-01 1.047942833649533889e-01 3.058161920762518249e-01 3.649968454444724730e-01 1.028823020501511186e-03 4.865891114357500102e-01 3.038989174938463433e-01 -1.875203642521034234e-02 5.253741548059759348e-01 2.130423762751445516e-01 -1.421609323240483336e-01 2.228842151573635633e-01 -4.173170929030173282e-02 -1.028907411123968496e-01 5.460972013480663856e-01 2.140936373770794543e-01 2.803200358044598550e-01 -1.375145825721451331e-01 1.373684878154987077e-01 2.632181315477873373e-01 4.824621145967952079e-02 5.983448922998862995e-01 -1.523253928088058595e-02 1.103407106754511618e-01 1.525264321995202232e-01 -1.542422549973071211e-01 1.228625696324592981e-01 8.376091400857203773e-02 7.073086832222167386e-01
-1.800427724950441344e-01 -3.896889182845812427e-01 -2.524576895372301899e-01 8.031715457685775772e-02 1.227119020820709172e-01 -8.923118734186123724e-02 -3.535325179970452147e-01 -1.591089001103839218e-01 -2.857011406477960036e-01 3.195636445484837523e-02 -2.553333209068306409e-01 -1.148959993717775102e-01 -2.537307185596180958e-01 -6.458468614810487438e-03 7.337501369141431473e-01 -1.735327834460485552e-01 -3.951790579782799018e-01 -1.738551301743213873e-01 -4.203635172413862364e-02 -1.926154544926221568e-01 -4.981403726439970897e-02 -4.739594367168765143e-01 -1.189604052096518289e-01 -4.690369406372313366e-01 -5.378946974116124435e-01 1.405736171445730598e-01 -3.494726327467417293e-01 8.577127970646651889e-01 -6.382995684079114662e-01 -6.345426591105558511e-01 -2.068852297891608238e-01 -3.963530854074026610e-01 -2.365154117513384169e-01 -2.190405655157440235e-01 6.737981555639221964e-02 -8.300441115332797548e-02 -4.076362926389148766e-01 -7.417866156008297296e-02 -1.218776743363326059e-01 3.608969550832850093e-01 -2.114916723088830774e-01 -3.660389730486511839e-01 -3.118955839467532076e-01 -8.265851367391174181e-03 1.183512541683749281e-01 -6.294157242779915840e-02 1.602535617091146725e-01 -9.860667923091545606e-02
-2.937438602085914452e-01 -4.529571612192369590e-01 -3.819699137709297032e-01 -3.914837221790157806e-01 -3.534349555847581675e-02 -3.198502824682350476e-01 -5.021552800239340586e-01 -1.248735492927706692e-01 -1.866597140683668166e-01 5.703256108409397729e-02 -4.893591048028340107e-01 -3.214356348130445462e-01 -2.626853321370874461e-01 -4.194512095304808730e-01 5.185794158032585033e-01 -6.628413886539261668e-01 -1.901633979048732159e-01 -3.767669245649050702e-01 -3.300152230675765797e-01 -5.806706953723008574e-03 1.352735529661418072e-02 -3.688912391633690779e-01 -2.501443810842614579e-01 -7.669295622343725860e-01 -6.054986503829458133e-01 -4.059011533861897059e-01 -3.905149063587525227e-01 1.128375811466037160e+00 -1.039135623061266056e+00 -1.064641109845249733e+00 -2.698013117143229223e-01 -4.138641312783991055e-01 -2.241536025081454497e-01 -1.952611769207354686e-01 -2.439242677767299583e-01 5.561371819397625121e-02 -2.696500041890514399e-01 -2.439354070725590906e-01 -2.788851860125952653e-01 3.199265346481174332e-01 6.134654379979036926e-02 -1.209006696177919588e-01 9.824271238326207079e-02 -3.861448143284279544e-01 3.948155733945354906e-01 -2.600673075726789851e-01 3.574784866520682169e-01 -3.678036422153141416e-01
2.682355522176551599e-01 4.127095104819546861e-02 -3.873501396069804481e-01 -6.293567877183697812e-02 -1.140647421730618533e-01 2.727600252915924339e-01 4.449371247088482195e-01 1.346392736775644805e-01 4.923006567429297209e-01 1.118191661619506727e-01 3.472344581517355366e-01 1.512957087654237531e-01 1.943159924876545486e-01 -1.129582211537873832e-01 -3.120137840710518473e-01 4.266574991188801236e-01 1.413946297670356511e-01 -1.501539581365625431e-01 5.016939762125225410e-01 2.782362808100838358e-01 4.904331552362212882e-02 2.817785887603065781e-02 -5.599284755301522226e-02 1.422473940522253621e-01 1.148258083057702855e-01 3.473341151606602201e-02 -2.061105819007600856e-02 -2.719724383277518087e-01 2.620579895457802455e-01 2.766609469761537737e-02 1.792170073069811465e-01 4.662736435553120617e-02 -1.283765344095118555e-01 -4.572491391118613246e-02 1.375301844788116568e-01 3.785672465118574692e-01 5.582543334859891258e-03 1.179865213591590051e-01 5.571386379994144877e-02 -1.220321194461179842e-01 -1.534355201449341503e-02 2.292600798574737364e-01 2.540182685340252600e-01 -4.126281027441819170e-05 1.443829717779370192e-01 3.836601559652515203e-02 2.189088952769985830e-01 4.725301549795109524e-01
-5.741066617409671391e-01 -5.806256767800396235e-01 -6.212684793007983153e-01 -1.564950850428599438e-01 -6.306853528525092623e-01 -5.583535971048700919e-01 4.610341459281436238e-01 -1.011379413051324561e-01 6.764728210768969907e-01 -5.568788033058248432e-01 7.003027285734167440e-02 -5.093159194912421084e-01 -2.953838950679540387e-01 -1.552508128221754269e-01 5.147713559739454103e-01 -2.273760154766888697e-01 -6.037626216580088689e-01 -1.230576326915479995e-01 4.059896844842405539e-01 -7.352256139254573775e-01 -4.760264964100239249e-01 -1.166129639444497545e+00 -4.005074853318845718e-01 -6.523597273614571979e-01 -2.291762164265929991e-01 -2.709456473382182984e-01 -3.605949624168685586e-01 -4.408557314712195363e-01 -4.945825974689410098e-01 8.528982122442380076e-01 -2.346114772050399699e-01 -1.129895964837061895e+00 -1.062300882232554367e+00 -3.276583319193577259e-01 -3.846486171722029307e-02 -2.884107799760612378e-01 -7.514039164979142704e-01 -5.195607364197752931e-01 -6.750881035029079325e-01 3.629816070634687142e-01 -6.252030790555114237e-01 -6.262016063343347483e-01 -1.053627429317914199e+00 -4.466233365067317357e-02 3.427811367754819427e-01 -1.016906249765493347e-01 3.494015442234958413e-01 1.734645134473584149e-01
-5.765692359028296021e-01 -3.201110216956449817e-01 -3.560153649230441419e-01 -1.712747585854125787e-01 -3.174397702024832624e-01 -3.200966303568246740e-01 -9.576280238111475884e-02 6.830251150676452943e-02 1.367672472491246738e-01 3.545129837828091355e-03 8.420411219957490978e-02 8.803039449613470069e-02 -1.368863641865477598e-01 -2.921369921596229657e-01 7.011987741357043058e-01 2.380943354276864599e-01 -3.899180188766705468e-01 4.200795547198670626e-02 3.194654223065276216e-02 -6.795630521990718431e-02 -2.968593857709563855e-01 -2.785542278379645742e-01 -1.105919241428688221e-01 -1.529785195924577013e-01 3.086704117297987132e-02 -3.735389291335663442e-01 -2.365716451295403824e-02 6.561219488570954050e-01 -1.611985113971047337e-02 -5.671869759840845321e-02 -2.073405702188798605e-01 -1.930846912742682220e-01 -2.856708168459123343e-01 -4.505016077009090791e-01 2.362999489333393599e-01 2.188035957201495685e-01 -2.693152579686117765e-01 -2.191740504039521240e-02 -8.975135258885316714e-02 3.062175374544389150e-01 2.537493329821979837e-01 -2.576009064931382153e-01 -2.992215092400182241e-01 -1.645604356265796264e-01 7.759329183733540414e-02 -7.845286099500839438e-02 2.328098057072112426e-01 -3.859641942947724114e-01
6.279499370758892529e-02 9.881574352867708577e-02 2.128958420729805678e-01 1.820931578319649746e-02 1.276093996809567754e-01 8.515475035211804433e-02 4.273558799167896383e-01 -2.709637036151251593e-02 1.115945164747601387e-01 2.418522666462110671e-01 2.099439447105769241e-01 3.653277479123684945e-01 8.847798082502811301e-02 2.507089611589686240e-01 2.452348407250658224e-02 8.633965060048151563e-02 6.900211780142603835e-02 1.678516764616315715e-01 1.520160094672089179e-01 6.432809647454277302e-01 2.195383901346623923e-01 3.327358745652343464e-01 4.356362323517129487e-01 3.464186809929798438e-01 -1.830926281657955512e-01 1.018855264714329939e-01 -1.062741130392885480e-01 1.012644561030797419e-01 9.668313101663952858e-02 -1.780600244340558025e-01 3.699042372323053107e-01 3.500123311264074499e-01 -1.533502882644294935e-02 8.987740004416097661e-02 3.523121841855302860e-01 3.085274552750879584e-01 1.173478471812871710e-01 6.597604278534635602e-01 4.729616171883992415e-01 -6.396201925451652781e-02 3.027129510781286295e-02 -4.316353725102876210e-02 3.364221343879408299e-01 2.041656432833004464e-01 1.654799127886160404e-01 6.461351974250807706e-02 -8.978469572791403230e-02 1.171681079053552704e-01
1.620195125003596748e-01 3.358956585745843659e-01 2.683358728639697599e-01 4.002426423268015121e-01 3.885085510125093622e-01 5.848500972627143080e-01 4.008835327484555622e-01 6.455049125624723327e-01 8.296318416578828403e-01 2.487298902718312610e-01 7.823971495099507623e-02 4.100995747563930816e-01 3.278553485384905208e-01 4.353538067122311728e-01 -5.271829868208753878e-01 9.838770432080637396e-02 2.379681273921450679e-01 5.784675325123002088e-01 2.591644269746968265e-01 3.996880609300356157e-01 1.750291130678631457e-01 3.055864061411788235e-01 1.385007838207993336e-01 1.365328825153862106e-02 2.340182072360860177e-01 4.419006196881383186e-01 2.538495684263843422e-01 -3.063188584238253909e-01 2.898806762583352459e-01 -1.899777342886323772e-01 4.294473247200107369e-01 3.462045541358438894e-01 4.346663439238906412e-01 3.876974902941363044e-01 4.489441132149518121e-01 1.035661077855569434e-01 3.318669102022363537e-01 5.597923392244851665e-02 4.076129671676861910e-01 1.428125559561354840e-01 6.598522389493207685e-01 2.483249425045772341e-01 3.072216740463979412e-01 8.515576431373618471e-02 -4.601106774085170215e-01 1.675730709828709697e-01 6.090790384698793747e-02 -2.696038556318998674e-03
1.925697746092729923e-01 9.918214869175422457e-03 5.604802296935474520e-02 2.869861528414215934e-01 5.913839352634621405e-02 -8.024730744825370188e-02 3.395548057019802113e-01 5.846420528058537264e-02 1.191939722474399388e-01 2.565404749865264275e-02 1.681984471021254479e-01 4.125485556730565384e-01 1.563167451807157549e-01 5.988458585909828963e-02 4.198401078094886330e-02 5.210770091190939368e-01 2.932971366852549777e-01 5.803571364755903961e-01 3.103062830940995775e-01 4.587878134637725092e-01 1.584350063725128710e-01 -1.081597883324612180e-02 5.049243219567348118e-02 -3.577277236383125808e-02 5.896821264719968037e-01 5.306107456538018408e-01 2.537476590314061697e-01 -7.678533514976862429e-02 3.050490010057503310e-01 4.477931059211168741e-01 -1.082127605809181797e-01 1.761535207567626604e-01 -2.707345662314545320e-01 4.483112945930209925e-01 6.111166130157354992e-01 8.493351519357120183e-02 -7.175870132354179691e-03 2.782427235028668844e-01 3.549837342076292979e-01 -3.326409265990668551e-01 2.472380752768146579e-03 3.940927777612961425e-01 1.669308223190449358e-01 3.659911651340948535e-01 -4.198400609433189379e-02 1.064295264824897252e-01 8.157211854650465999e-03 8.875032093910246722e-01
1.693520024660149226e-01 4.378360190000160079e-01 2.971226595606453191e-01 3.252898416324824238e-01 4.119698930233312018e-01 2.772638858914342475e-01 8.336002900267305282e-01 3.278103710897212753e-01 1.152440954582135468e+00 2.798682300933419964e-01 7.022591367321053824e-01 3.406951853301597999e-01 7.061580430434624134e-01 6.682369500922745731e-01 -5.516742221995066808e-01 5.192804445673785407e-01 8.221018116275370657e-02 3.411078387657638933e-01 6.806034863917990174e-01 2.656040588036394090e-01 4.592520146248893487e-01 2.610760308014695164e-01 3.978660611169164696e-01 4.948122590834200946e-02 4.798629572386691189e-01 1.714747510948085585e-01 2.729733872293984565e-01 1.138951516699190508e-01 1.700345630007653319e-01 1.460852139497743896e-01 4.159556782500240524e-01 2.827793189826673381e-01 1.032633560161406866e-01 -6.751421234962798855e-03 4.018340454950320995e-01 4.037902283273416271e-01 2.775470488473365527e-01 3.750699610037085963e-01 1.890780402957017159e-01 -7.733635956276697920e-02 3.574363896288781928e-01 2.498336623888157138e-01 1.525926892554131664e-01 3.735893891423858748e-01 -2.272671364679553496e-01 3.550172672628394421e-01 -9.920274037219790897e-02 3.446019413044590918e-01
7.115580801210663608e-01 2.626993527606265588e-01 4.871705296523454742e-01 2.632217433381901506e-01 3.720055716724461892e-01 4.318737374921667316e-01 5.479133630959456269e-01 4.934559210673346019e-01 3.323893485085903654e-01 9.148588317378760770e-01 7.201108782754531701e-01 5.373396845840290315e-01 4.805509285507427730e-01 3.572634262865914123e-01 -9.113780439643601183e-02 1.918320008845804392e-01 3.078951901832472915e-01 6.002380901550616876e-01 6.870892606062332097e-01 1.008426445879482963e-01 2.050436238792821553e-01 4.890846653996026583e-01 1.852813744964983134e-01 3.225480060629292711e-01 1.497881659723577230e-01 5.803691657378964308e-01 5.381774779849402002e-01 3.205570788382612890e-01 4.438052612345560477e-01 -1.974292941549625202e-01 4.868381221141765414e-01 1.249678343275550801e-01 3.597505441605523546e-01 3.736258966284098371e-01 2.741370082156815990e-01 3.097732115968348521e-01 5.222830374920530705e-01 6.670560893573944661e-01 3.965073549511011208e-01 -4.463758993980396772e-01 5.517306145134791562e-01 6.708981453694176089e-01 5.260251743039471295e-01 4.557620097901413092e-01 -4.930305260917698384e-01 4.522589960384458818e-01 -2.697475725906177679e-01 5.647766891510693776e-01
1.521684468887257446e-01 1.701092401033242052e-01 2.424780725271865056e-01 2.946397578999614408e-01 -8.164871661571115879e-02 1.448418096876145922e-01 5.759501717608926930e-01 1.915346152314672812e-01 1.386710669229475057e-01 8.033327959330273382e-02 8.484375860627346722e-01 3.413986803295403494e-01 -2.483519466275209853e-03 1.441353352832125401e-01 -1.455739202121903442e-01 3.997419620647977290e-01 2.500697935402561578e-01 3.690471437058203130e-01 5.764101243027506261e-01 2.344491223684547904e-02 3.965449457237592013e-01 2.558470952646433455e-02 2.725066787839173221e-01 3.760395358048195802e-01 2.465255028357079825e-01 -2.936321841621574932e-02 3.154134767831622832e-01 3.010525712947047516e-01 1.535627797512109649e-01 8.931116330881255783e-02 2.158400180828832227e-01 2.805001215712533968e-02 1.638845131492482621e-01 1.524581738456711189e-01 -9.303575254251690574e-02 3.283428717888132176e-01 -3.430414618177599767e-02 2.781505404228493128e-01 -6.224002524313874268e-02 9.170740445321323708e-02 1.467264324679432852e-01 -5.396404989931793267e-02 1.963704873684740393e-01 3.830197286678557189e-01 -2.943677542042829609e-01 5.921714331631677819e-02 -1.104610440086953860e-01 3.662913033908959948e-01
2.524257012332622660e-02 -1.976430907907771317e-01 3.638720086791678854e-02 -3.239996693120425486e-01 -1.717114997424761761e-03 -2.427515706813020979e-01 -1.158384923733562083e-01 -4.130873184520075236e-01 1.613715591846998643e-01 -7.521150307023174997e-02 -1.658440155125512905e-01 -3.773472758455632681e-01 -9.572603992027516051e-02 -1.268533891375455414e-01 1.437484029115339568e-01 1.853654212177983929e-01 -1.459876286036231319e-01 -2.165163137701519303e-01 3.920307775792514771e-01 -1.840838652754080151e-01 -2.028560275433462234e-01 -1.997981251998487695e-01 1.965165753937040127e-01 1.419239431287787345e-01 9.085723385958264023e-03 -1.707017706735639573e-01 -3.358032961230241753e-01 4.601949349398983813e-01 -1.303537712572356289e-01 -1.992402437656440872e-01 5.627213020334437092e-03 -1.885545814391273445e-01 4.358892913796648221e-03 -1.053175858942741461e-01 -1.538188759699435915e-01 -3.752573246676636498e-01 -1.891943160467219054e-01 -2.424749387201202144e-01 -5.974710223216568757e-03 2.804195050185946947e-01 -1.696910427672500832e-01 -2.943693679529877927e-01 2.250156786967861047e-02 -1.299932544603437379e-01 3.611988635380848356e-01 -9.958521075562210001e-02 2.431696518772819282e-01 -7.521899293425116095e-02
-1.376096972263777737e-02 3.876921650246949458e-01 2.000896384864229161e-01 8.247248533769513390e-02 3.095170502542215485e-01 -1.043409291241698678e-01 -6.705294638460639056e-02 4.145690511896837904e-01 1.672310411771625316e-01 3.811812301039984585e-01 -2.506175557384143771e-01 -8.942165098911572518e-02 1.510886111424928624e-01 1.497530359988912263e-01 -5.176220922984375861e-01 2.160055704881638783e-01 -7.977743348600403739e-02 3.331427930691389649e-01 1.011419846755954588e-01 -4.874296193347692902e-02 6.575088980974673480e-02 -2.930684000301123637e-01 3.295561178679017322e-01 2.079902537908045468e-01 2.999543005199372531e-02 -4.561108821571291383e-02 -2.466494058513324650e-01 -8.847276818981855695e-02 1.959998892720865860e-01 5.591080238957433363e-02 1.992562136107637882e-01 4.793702960570778160e-02 1.150008301131468652e-01 -1.315449062057612584e-01 2.239472082071470305e-01 2.473442872745359455e-01 3.305151212364301205e-01 2.910805966760255381e-01 -1.827467115814872534e-01 1.613938549487653473e-01 -6.890176195475844478e-02 3.345436767007385903e-01 2.196766250197621784e-01 4.248737108479718610e-02 -9.186586241806531106e-02 3.685634527558631635e-01 -1.363724430958954958e-01 5.803098681212934817e-01
-3.632337603409312998e-01 -2.587338468303991279e-01 -1.883784152503345521e-01 -1.168271637311258243e-01 1.297884657267214248e-01 -3.169352425812729246e-01 -4.878753784813560368e-01 -2.423749213857955276e-01 -2.775449083525743932e-01 -2.786524615792690951e-01 -5.546019029187000404e-01 -3.099458529897098913e-01 -1.431917260051721597e-01 -2.569776559615405409e-01 4.755964966210594058e-01 -3.013729682288732170e-01 -2.293305794276878640e-01 -1.286656722568245981e-01 -2.217710586458423727e-01 -2.142644593616293280e-01 -1.003477393344369417e-01 -6.050164200421686012e-01 -2.133435692611973800e-01 -3.072029447423759163e-01 -4.219822721440706914e-01 -2.839953139568403007e-01 -7.110150666277919029e-01 6.093876932276874880e-01 -5.742849133829978081e-01 1.568978764738254983e-01 -3.124110419938673777e-01 -1.711222166874076245e-01 -2.755775299334641271e-01 -2.629178728045813984e-01 -1.876546140881781011e-01 1.694552022673746338e-03 -7.048905155032202385e-01 -4.329420313646895613e-01 -6.225020805540015800e-01 2.563749452557507746e-01 -5.982687030949072060e-01 -2.827787858905151386e-01 -1.549185196322220848e-01 -1.524454250525499553e-04 2.123151255156661144e-01 -2.645971125037088756e-01 4.919768404872653655e-01 -6.160270683368993527e-01
1.084080659207212194e-01 -4.815833533354783036e-01 8.954965817321169919e-02 7.884677253183057510e-02 1.419963589035296014e-01 -1.255312134399775292e-01 5.829620873653534874e-01 1.944687448550255215e-01 5.184854985512179493e-01 -1.881848085373298840e-01 1.985122901277149854e-01 6.942582745040790093e-02 -3.990533651408625232e-02 1.987735920442314508e-01 4.567381185341468086e-01 3.486571753773378135e-01 1.047960929392818402e-01 1.172318294819462009e-01 3.152444003071929179e-01 1.202506649246239123e-01 -1.017218989112501637e-01 2.066196497591911707e-01 1.944416079344265802e-01 -2.189449260454338908e-01 8.467121410023614736e-02 -2.243311227990665291e-01 4.479495835756350935e-02 5.720181135793196425e-01 8.207447473558204809e-02 4.175576268300830729e-01 2.258257006460250571e-01 -9.652189723855141013e-03 1.306462368378734917e-01 -1.542311997348999424e-02 8.544745420171061256e-02 -1.751567775223153434e-01 -3.075961749709736348e-01 -1.998670653959058741e-02 9.872300998044761244e-02 1.278419875149403306e-01 1.635541120659631323e-02 -2.590746598920244947e-01 -6.576891116234767631e-02 -5.516458276513207248e-02 5.453647394606532250e-01 -1.051822389214199932e-01 3.514984477730639933e-01 4.641667397603687073e-01
1.497305459815610751e-01 2.617644420114577652e-01 1.538517823588844424e-01 5.186105584001146629e-02 4.901488396994989338e-02 3.458091860194534295e-01 4.367848589712036711e-01 3.314320801898639757e-01 4.114908209382333037e-01 -4.853822737449879632e-03 3.892619601006335750e-01 5.704642047957086959e-01 1.795986004968416483e-01 3.313630702132494554e-02 7.613018606637601826e-02 3.422591862158582687e-01 -7.388851843507944495e-02 3.072243491742983612e-01 3.045429070855986686e-01 4.028739802975373485e-01 3.715625244182849118e-01 1.468291154995166325e-01 2.262786660067413469e-01 8.215661804468134266e-02 2.489655628345001093e-01 -3.057015036271374525e-03 3.709387845807683437e-01 -2.532699524183148476e-01 4.388902651372840746e-01 1.510316821200138326e-01 4.896933221791318486e-02 -5.655243696602762354e-02 2.323114660564434830e-01 1.951742395243976080e-01 2.696343044900548769e-01 2.023678744362561732e-01 1.679508291426415612e-01 2.096677927390082907e-01 4.016708424503448449e-02 1.998162316199999233e-01 5.909169386593902430e-03 3.852720406614851267e-01 1.765178494205713600e-01 1.150371508110354934e-01 -1.581515359716317570e-01 3.604610184139341866e-01 3.415725094461782851e-02 3.498024827214888943e-01
2.016416184545486157e-01 -3.105987837387133924e-02 3.270180985367860393e-01 8.760855984730234192e-02 3.801672399399899649e-01 9.245106229760331751e-02 6.865061325845773776e-01 1.536956114517710748e-01 1.889963419360267682e-01 -1.175699781253565224e-01 1.866709374348764217e-01 -1.562278447676636317e-01 1.055100853471680616e-02 9.356807713893324635e-03 1.756042433147929904e-01 4.010466128435521971e-02 3.929710257873691992e-02 -4.508886841860715311e-02 9.532753070011230900e-02 -4.823117046613113051e-02 4.276087656301174045e-01 -9.394338733541728048e-02 -8.806223089790478353e-02 -1.157990274144602870e-03 3.021730214624575028e-01 -1.931835542103313152e-01 3.123857321900342376e-01 -1.988272796253749142e-01 -1.935934002165198842e-02 -2.910482479088427055e-01 1.670800149165568571e-01 -9.747784722403329827e-02 8.041328193370594901e-02 4.023639303028366671e-02 -3.354516989508258273e-01 9.967022085446720914e-02 2.137374887032805204e-01 -1.488779499506114878e-01 -6.428499913372445751e-02 1.112301686556502189e-01 3.458486697038208324e-01 3.216731587523362634e-01 2.560918625533498694e-01 -5.803909051971281596e-02 1.570650300699987234e-01 7.589352198290769819e-03 2.679781938930518859e-01 1.259246337120564219e-01
-2.634846001122259640e-01 9.725937811822371604e-02 -2.756624033854223610e-01 4.494861622911042187e-01 4.985203123921940205e-01 -8.979265496653202061e-02 6.789141826553291015e-02 1.910749554710219900e-02 2.514510008899934618e-02 2.401798370971103547e-01 -2.367938505200751775e-01 -1.202979472016237755e-01 2.141315134158818245e-01 1.110815838024164226e-01 5.747163047182532458e-02 -1.350960151906524243e-01 1.099012670849100898e-01 -2.377080426501081492e-02 3.314169512278496987e-01 2.493595917408207296e-01 2.001910942386069259e-01 1.053130032576486547e-01 9.876730536193263632e-02 1.419124026262447991e-01 -5.223843851683533657e-02 -1.731737295303399649e-01 1.359002059178918975e-01 1.273224381342496492e-01 1.237544673798645217e-01 -1.633566130083868514e-02 -3.498669775185290209e-01 5.185500307638510886e-01 5.901818680788378790e-01 -2.885045952489490376e-02 2.259844723317346871e-01 6.901188426668569686e-02 8.728180241816088647e-02 1.720539094250552736e-01 3.219287892651491734e-01 -6.590190210030277829e-02 2.061139207400125295e-01 1.640928720542669528e-01 -3.456583292686793984e-01 3.409011735613683425e-01 2.378471051249305968e-01 -6.338802590738405393e-03 9.362281303429782764e-02 1.855765229211934764e-01
6.591542862743739184e-02 1.022893688448537897e-01 -2.373611592518225510e-01 5.934636246350961236e-02 3.556564714113779058e-01 3.083579878053143153e-01 6.855704845742854013e-03 -8.571102468080549208e-02 -2.114534192652562858e-02 -6.303653528446610810e-02 -3.633457225617092723e-02 9.800122874689801145e-02 1.909809938469693436e-01 3.038332054076206545e-01 1.617537124387155856e-01 -1.714918641160635693e-01 -1.060593032312910078e-01 -7.462469268437543768e-02 -1.950328881485605681e-01 -4.073264953742325445e-02 5.022775324532194885e-01 2.733501323908781311e-01 -2.922775622718951777e-02 3.819605230205194712e-02 5.392382290743245044e-01 -2.266097890556297290e-01 1.221691937351170598e-01 5.097461045483725472e-02 -3.957534283511666279e-02 -1.283409778616712016e-01 3.630682965340887303e-01 4.489164331437680566e-01 3.458381399221966551e-02 3.317603460800550574e-01 -4.425844747443925808e-02 6.797998746859774954e-02 2.699277749746899491e-01 1.021501962697029531e-01 9.203516971210744246e-02 1.158023694608919379e-01 3.417038976119222693e-01 -4.359473187623355561e-02 4.507352437916563315e-02 2.480247244490644265e-01 -2.740214150848565566e-01 -7.311154086585194833e-02 8.022615371362168402e-02 1.308134137021076115e-01
